-3.998559713363647461e-02 -8.514865487813949585e-02 9.098743647336959839e-02 -1.618393510580062866e-02 9.328598529100418091e-02 2.740476280450820923e-02 1.167647615075111389e-01 -7.025631517171859741e-02 5.539911240339279175e-02 -7.376082241535186768e-03 2.649880200624465942e-02 9.084942191839218140e-02 -3.868479281663894653e-02 -9.510075300931930542e-02 -5.390278995037078857e-02 -2.182610332965850830e-02 3.164561837911605835e-02 -8.614116162061691284e-02 -1.633226871490478516e-03 -2.313927561044692993e-02 7.704823464155197144e-02 8.603026717901229858e-02 6.480572372674942017e-02 9.787347167730331421e-02 1.048745438456535339e-01 3.418182581663131714e-02 5.601754039525985718e-02 -2.697464078664779663e-02 8.714633435010910034e-02 4.348201304674148560e-02 4.248056560754776001e-02 -5.006629973649978638e-02 -6.351564824581146240e-02 -1.014393344521522522e-01 -3.215871751308441162e-03 6.814228743314743042e-02 -8.690619468688964844e-02 8.326303213834762573e-02 4.861620813608169556e-02 -3.623387217521667480e-02 -1.195091605186462402e-01 -1.112779676914215088e-01 1.478793472051620483e-02 2.413064986467361450e-02 5.171962082386016846e-03 -3.298791497945785522e-02 -6.180682405829429626e-02 -5.673272907733917236e-02 1.019825115799903870e-01 8.133532851934432983e-02 -6.513339281082153320e-02 -5.765096843242645264e-02 1.071854755282402039e-01 1.169270053505897522e-01 -3.315822780132293701e-02 2.284514158964157104e-02 1.477526873350143433e-02 9.099745005369186401e-02 7.209479063749313354e-02 -9.912958741188049316e-02 1.532629132270812988e-03 1.723588258028030396e-02 -8.490228652954101562e-02 -4.770302027463912964e-02 -7.623803615570068359e-02 -6.174444034695625305e-02 -1.231350004673004150e-02 5.136949568986892700e-02 1.139807179570198059e-01 7.608070224523544312e-02 5.938863009214401245e-02 6.568502634763717651e-02 -1.067236065864562988e-03 -9.086361527442932129e-02 2.658755332231521606e-02 -2.970270812511444092e-02 8.925802260637283325e-02 5.685529857873916626e-02 6.264947354793548584e-03 1.167423799633979797e-01 -5.600337684154510498e-02 6.597442179918289185e-02 1.096898242831230164e-01 -1.525104045867919922e-03 -5.886694043874740601e-02 -2.835270762443542480e-02 2.512989193201065063e-02 -8.606502413749694824e-02 -1.040038987994194031e-01 -6.494311988353729248e-02 -1.217355579137802124e-02 5.549515038728713989e-02 1.683100312948226929e-02 -9.842535853385925293e-02 -1.021263003349304199e-02 5.868951231241226196e-02 -9.321357309818267822e-02 -4.300603270530700684e-02 8.944537490606307983e-02 9.795958548784255981e-02 -1.122411191463470459e-01 7.867667824029922485e-02 1.066545322537422180e-01 6.455309689044952393e-03 -9.914917498826980591e-02 -9.578332304954528809e-03 8.908229321241378784e-02 9.683553129434585571e-02 6.059364229440689087e-02 -6.757877767086029053e-02 2.014442533254623413e-02 -2.652081102132797241e-02 -1.163762658834457397e-01 -1.131300255656242371e-01 -3.310801088809967041e-02 -1.162289381027221680e-01 -5.990034714341163635e-02 3.552199155092239380e-02 -2.571657299995422363e-03 5.033031851053237915e-02 6.807199865579605103e-02 5.630262941122055054e-02 1.618414372205734253e-02 6.955067068338394165e-02 -2.739593386650085449e-02 -2.210918813943862915e-02 4.018428176641464233e-02 -1.144555956125259399e-02 4.273404926061630249e-02 -1.203664839267730713e-01 9.975083917379379272e-02 -7.215142995119094849e-02 7.456549257040023804e-02 8.745058625936508179e-02 -2.440623939037322998e-02 -3.405915945768356323e-02 -1.323390007019042969e-02 8.817373961210250854e-02 1.638820022344589233e-02 -5.472749471664428711e-04 -1.122637242078781128e-01 -9.919575601816177368e-02 -2.048734575510025024e-02 -2.555213123559951782e-02 1.780297607183456421e-02 2.721696346998214722e-02 -1.633942127227783203e-02 -5.285098403692245483e-02 -1.088577881455421448e-01 1.036540195345878601e-01 -7.002887129783630371e-02 6.832814961671829224e-02 -1.244582235813140869e-03 3.674136847257614136e-02 -3.787762671709060669e-02 6.938941031694412231e-02 4.596174508333206177e-02 -1.046326011419296265e-02 9.969783574342727661e-02 2.478862553834915161e-02 3.519070893526077271e-02 1.750279217958450317e-02 6.204774230718612671e-02 -4.263720661401748657e-02 4.712528735399246216e-02 -7.535152137279510498e-02 -7.657107710838317871e-02 -7.803030312061309814e-03 9.325619786977767944e-02 1.163860186934471130e-01 -9.871017187833786011e-02 -5.334594100713729858e-02 -3.013496100902557373e-02 -6.848573684692382812e-02 -2.766479551792144775e-02 3.958979994058609009e-02 -1.034585535526275635e-01 -9.892290830612182617e-02 -6.642233580350875854e-02 2.697528153657913208e-02 8.429106324911117554e-02 1.162343695759773254e-01 -2.753350883722305298e-02 1.141972318291664124e-01 9.767391532659530640e-02 1.644095033407211304e-02 3.295076638460159302e-02 -1.169653981924057007e-02 -4.411656409502029419e-02 1.120289042592048645e-01 -2.875476330518722534e-02 1.126113608479499817e-01 -1.047761440277099609e-01 -1.570559293031692505e-02 4.350436478853225708e-02 3.587698191404342651e-02 -4.162272065877914429e-02 9.509385377168655396e-02 -5.754765123128890991e-02 5.711949616670608521e-02 8.552279323339462280e-02 -7.672205567359924316e-03 3.694514185190200806e-02 5.859293043613433838e-03 2.819346636533737183e-02 -8.249883353710174561e-02 -6.132317334413528442e-02 -7.651950418949127197e-02 7.529206573963165283e-03 -1.056426763534545898e-02 -8.874887228012084961e-02 -5.856583267450332642e-02 -8.784779906272888184e-02 -1.087460666894912720e-02 -2.760948240756988525e-02 -9.946000576019287109e-02 1.154642328619956970e-01 -7.414311170578002930e-02 -6.171844899654388428e-03 -5.603019893169403076e-02 1.739797741174697876e-02 1.455659419298171997e-02 1.192584410309791565e-01 1.024532094597816467e-01 8.425199240446090698e-02 4.554400593042373657e-02 3.937035799026489258e-03 7.264756411314010620e-02 -3.350092470645904541e-02 -3.771997988224029541e-03 -4.345143586397171021e-02 -3.720174729824066162e-02 -6.061207875609397888e-02 2.221696823835372925e-02 3.379566222429275513e-02 -2.831608057022094727e-03 -9.248874336481094360e-02 6.779777258634567261e-02 -6.370797753334045410e-03 6.488763540983200073e-02 1.656401902437210083e-02 3.262949734926223755e-02 9.295263141393661499e-02 5.035596340894699097e-02 -8.690206706523895264e-02 6.181720644235610962e-02 -1.993736624717712402e-02 1.024661287665367126e-01 -9.669380635023117065e-02 1.876061409711837769e-02 -1.926980912685394287e-03 -5.611971020698547363e-03 7.520589977502822876e-02 -5.559139698743820190e-02 -1.021395623683929443e-02 -6.936568021774291992e-02 1.131686195731163025e-01 3.398195654153823853e-02 3.676528483629226685e-02 1.422511786222457886e-02 -7.024861872196197510e-02 -7.425265014171600342e-02 -1.034321635961532593e-01 4.571991413831710815e-02 -7.081968337297439575e-02 9.156168252229690552e-02 1.217972487211227417e-02 2.268426865339279175e-02 1.046972945332527161e-01 -9.494058787822723389e-03 -1.097782701253890991e-02 -3.250394761562347412e-02 3.126313537359237671e-02 -1.077908724546432495e-01 -3.234095871448516846e-03 -4.170976579189300537e-02 -1.175819113850593567e-01 -7.050296664237976074e-02 9.964542835950851440e-02 -5.808962136507034302e-02 -5.680815130472183228e-02 -7.957617193460464478e-02 1.039703935384750366e-02 9.744828194379806519e-02 2.557384222745895386e-02 -1.162232607603073120e-01 7.060273736715316772e-02 -6.128614023327827454e-02 -3.979700058698654175e-02 -6.468459963798522949e-03 -2.613365650177001953e-03 7.621937245130538940e-02 1.086135581135749817e-01 -8.396536111831665039e-03 3.912203758955001831e-02 4.339399188756942749e-02 -6.710741668939590454e-02 7.577382773160934448e-02 -3.071857988834381104e-02 -7.814350724220275879e-02 3.989171236753463745e-02 -5.382676422595977783e-02 -7.083471119403839111e-02 -2.695808559656143188e-02 -1.926437020301818848e-03 -1.202667504549026489e-01 3.186287730932235718e-02 -9.429935365915298462e-02 -1.176495477557182312e-01 -1.203372105956077576e-01 1.031755581498146057e-01 1.167376264929771423e-01 -6.404627859592437744e-02 4.145834594964981079e-02 6.608482450246810913e-02 1.159517988562583923e-01 1.134147271513938904e-01 9.816311299800872803e-03 8.684836328029632568e-03 1.887612789869308472e-02 -1.018769517540931702e-01 -2.656762301921844482e-02 -1.790764182806015015e-02 -2.804940193891525269e-02 -1.052264869213104248e-02 7.690895348787307739e-02 -1.054941862821578979e-01 -1.123851239681243896e-01 7.331687957048416138e-02 -6.728055328130722046e-02 9.901592880487442017e-02 -1.656860113143920898e-02 1.525669544935226440e-02 -8.821881562471389771e-02 -5.215913057327270508e-03 7.052123546600341797e-04 -7.441003620624542236e-02 6.835272163152694702e-02 -6.503619253635406494e-03 -7.743524014949798584e-02 2.359097450971603394e-02 1.015268191695213318e-01 -7.944892346858978271e-02 2.547376602888107300e-02 -4.387267678976058960e-02 -3.847312927246093750e-02 4.326168447732925415e-02 1.126558855175971985e-01 -2.657192200422286987e-02 -1.090376749634742737e-01 -5.659549683332443237e-02 -7.675880938768386841e-02 -8.660009503364562988e-02 4.253796488046646118e-02 5.677572637796401978e-02 -7.785923779010772705e-03 -9.202750027179718018e-02 -1.186653599143028259e-01 2.488916367292404175e-02 -4.824651777744293213e-02 8.767320960760116577e-02 -4.933887720108032227e-02 -7.909741997718811035e-02 1.098812744021415710e-01 9.118547290563583374e-02 -8.492045849561691284e-02 -3.727108240127563477e-02 7.674746960401535034e-02 8.264007419347763062e-02 -5.804220587015151978e-02 -1.133700758218765259e-01 -5.123448371887207031e-02 1.000482663512229919e-01 -1.180623322725296021e-01 1.062033548951148987e-01 -3.272056579589843750e-03 7.024950534105300903e-02 7.676131278276443481e-02 -7.997502386569976807e-02 -6.610541790723800659e-02 -7.011175900697708130e-02 6.542601436376571655e-02 -7.724539935588836670e-02 -1.101876050233840942e-01 -3.407375514507293701e-02 -2.531436085700988770e-02 1.830742508172988892e-02 8.950591832399368286e-02 1.085778996348381042e-01 -6.184457615017890930e-02 -7.101228833198547363e-02 -2.357646077871322632e-02 -9.568537771701812744e-02 -4.453952610492706299e-02 7.011894136667251587e-02 -1.064943969249725342e-01 8.611128479242324829e-02 7.048117369413375854e-02 -3.090668469667434692e-02 -1.029855757951736450e-01
-4.863645881414413452e-02 5.669759958982467651e-02 9.497027844190597534e-02 1.356474310159683228e-02 4.914566129446029663e-02 -6.704263389110565186e-02 -9.272882342338562012e-02 1.152002885937690735e-01 2.158870548009872437e-02 -5.086617171764373779e-02 -1.312881708145141602e-03 -5.462825298309326172e-03 -4.571431875228881836e-02 7.711293548345565796e-02 1.209190115332603455e-01 -3.361900895833969116e-02 5.378984659910202026e-02 1.110200956463813782e-01 4.070051014423370361e-03 2.939128130674362183e-02 6.120642274618148804e-02 1.060485616326332092e-01 6.895234435796737671e-02 5.840059369802474976e-02 1.127801761031150818e-01 -3.837318718433380127e-02 1.138207241892814636e-01 -1.219487190246582031e-02 8.505483716726303101e-02 -7.781326770782470703e-02 -5.869382992386817932e-02 -8.321696519851684570e-02 9.555689990520477295e-03 1.780640333890914917e-02 3.217647224664688110e-02 -1.819767802953720093e-02 -4.841558635234832764e-02 -1.158755719661712646e-01 -1.188736855983734131e-01 9.137683361768722534e-02 1.063321605324745178e-01 1.378651708364486694e-02 3.432620316743850708e-02 7.223928719758987427e-02 -2.415087819099426270e-02 2.741739153861999512e-03 5.159581452608108521e-02 5.258122831583023071e-02 -1.093979701399803162e-01 -5.720616877079010010e-02 -2.561947703361511230e-02 -2.846926450729370117e-03 -8.972329646348953247e-02 5.319534987211227417e-02 -6.532974541187286377e-02 -5.460277944803237915e-02 -5.889889597892761230e-02 -4.718398302793502808e-02 -6.435194611549377441e-02 1.101654022932052612e-02 5.295553058385848999e-02 -6.717233359813690186e-02 -7.155345380306243896e-02 -2.004335820674896240e-02 -1.160252839326858521e-01 7.624017447233200073e-02 -5.558525025844573975e-02 5.728387087583541870e-02 -2.411309629678726196e-02 -8.524937182664871216e-02 4.812475293874740601e-02 -2.776124328374862671e-02 1.607816666364669800e-02 6.709236651659011841e-02 -1.103519126772880554e-01 8.416675776243209839e-02 -6.421238183975219727e-02 6.187248975038528442e-02 -1.062978133559226990e-01 -3.952830284833908081e-02 -4.491806030273437500e-04 -9.121032804250717163e-02 1.973512023687362671e-02 -9.594423323869705200e-02 -5.510414391756057739e-02 1.199476420879364014e-03 -3.111175447702407837e-02 7.828318327665328979e-02 5.432883650064468384e-02 -8.088888227939605713e-02 -5.057466775178909302e-02 -3.035580366849899292e-02 6.540421396493911743e-02 -8.247336745262145996e-02 -3.485418856143951416e-02 -9.415125101804733276e-02 -5.719843506813049316e-02 1.172563806176185608e-01 -9.582400321960449219e-03 -6.514813005924224854e-02 6.483951956033706665e-02 -6.844547390937805176e-02 -9.255588799715042114e-02 1.152038946747779846e-01 -2.861666679382324219e-02 8.058191090822219849e-02 -4.481257498264312744e-02 -5.767865478992462158e-02 9.981138259172439575e-02 -5.441458523273468018e-02 6.741190701723098755e-02 -8.190304785966873169e-02 -1.286287605762481689e-02 1.111512705683708191e-01 -8.392748981714248657e-02 2.187377959489822388e-02 2.466291189193725586e-04 1.086882278323173523e-01 9.715735167264938354e-02 2.067849040031433105e-03 5.133978277444839478e-02 8.019564300775527954e-02 -8.371774852275848389e-02 -1.139262020587921143e-01 -1.101591885089874268e-01 -4.992808401584625244e-02 -4.474923759698867798e-02 -1.088101118803024292e-01 -6.843791902065277100e-02 1.126701161265373230e-01 1.082644611597061157e-02 7.825379818677902222e-02 1.352246850728988647e-02 2.409315854310989380e-02 -3.290560096502304077e-02 -1.089545786380767822e-01 1.124134734272956848e-01 1.029135659337043762e-01 -8.373770862817764282e-02 -4.036197811365127563e-02 6.717023998498916626e-02 1.231006532907485962e-02 9.703428298234939575e-02 3.958945721387863159e-02 3.561411052942276001e-02 3.657881170511245728e-02 1.907118409872055054e-02 2.625852823257446289e-03 -2.203002572059631348e-03 -4.304900765419006348e-02 -5.661147832870483398e-02 6.694933027029037476e-02 6.347583979368209839e-02 -4.251306504011154175e-02 4.801084846258163452e-02 3.412760049104690552e-02 8.358322829008102417e-02 -9.205536544322967529e-02 -6.622220575809478760e-02 1.194354370236396790e-01 -7.435324788093566895e-02 6.611106544733047485e-02 -5.656679719686508179e-02 8.741054683923721313e-02 2.325833588838577271e-02 -7.244584709405899048e-02 1.119712665677070618e-01 -1.670600473880767822e-02 -8.766888827085494995e-02 -6.687647849321365356e-02 -4.727420210838317871e-02 1.137051358819007874e-01 1.242228597402572632e-02 -5.928277969360351562e-03 -8.653058111667633057e-02 -7.284995168447494507e-02 -2.660356462001800537e-02 1.117937788367271423e-01 1.209644302725791931e-01 -5.010707676410675049e-02 5.823750048875808716e-02 3.101202100515365601e-02 5.682982504367828369e-03 4.206275194883346558e-02 -1.056998968124389648e-03 7.985299080610275269e-02 -2.697080373764038086e-02 -8.874327689409255981e-02 3.883878141641616821e-02 1.117657199501991272e-01 -3.496517241001129150e-02 -3.864929080009460449e-03 3.022065013647079468e-02 -5.723500996828079224e-02 -2.888181060552597046e-02 1.285197585821151733e-02 1.656510680913925171e-02 7.785834372043609619e-03 8.899338543415069580e-03 -2.155187726020812988e-02 8.905004709959030151e-02 -9.637545049190521240e-02 -1.082520782947540283e-01 7.723120599985122681e-02 7.703831046819686890e-02 -6.806819885969161987e-02 -1.865753531455993652e-02 8.179552108049392700e-02 2.677511423826217651e-02 -1.106974110007286072e-01 9.699592739343643188e-02 -9.327642619609832764e-03 -6.505182385444641113e-02 -7.370912283658981323e-02 -1.166485249996185303e-03 -6.137220561504364014e-02 -3.629406541585922241e-02 -9.435936808586120605e-02 -7.728116214275360107e-02 7.416323572397232056e-02 7.425568252801895142e-02 -5.421756953001022339e-02 -1.627899706363677979e-02 -3.148011863231658936e-02 -6.511516124010086060e-02 -4.105577617883682251e-02 -5.892370268702507019e-02 1.203529909253120422e-01 1.097506806254386902e-01 -8.387334644794464111e-03 -1.196416467428207397e-02 1.091717258095741272e-01 -3.890765458345413208e-02 2.009809762239456177e-02 7.414899766445159912e-03 1.129397824406623840e-01 -5.218147486448287964e-02 1.022274717688560486e-01 1.798808574676513672e-03 8.087218552827835083e-02 -1.154760494828224182e-01 3.352642804384231567e-02 -2.312026917934417725e-02 -1.032513305544853210e-01 3.620158880949020386e-02 -4.802264273166656494e-03 -3.489921241998672485e-02 -1.096193045377731323e-01 2.685330063104629517e-02 1.064937561750411987e-02 -1.005384922027587891e-01 -7.658533751964569092e-03 -1.779261976480484009e-02 -6.869003176689147949e-02 -1.341646909713745117e-02 1.061228290200233459e-01 5.738466233015060425e-02 4.438317567110061646e-02 1.993663609027862549e-03 1.001685336232185364e-01 -5.078688263893127441e-02 -7.735595107078552246e-03 8.689806610345840454e-02 8.237905055284500122e-02 9.023734182119369507e-02 -1.840150356292724609e-02 1.051949709653854370e-02 -1.209575682878494263e-01 -6.108753755688667297e-02 -1.334428042173385620e-02 6.210700422525405884e-02 1.726608723402023315e-02 -1.167708188295364380e-01 7.359292358160018921e-02 4.364214092493057251e-02 9.190581738948822021e-03 7.884167134761810303e-03 -7.736111432313919067e-02 1.187713816761970520e-01 -1.067174002528190613e-01 1.054118797183036804e-01 -2.975070476531982422e-02 3.878409415483474731e-02 1.010601446032524109e-01 2.400945872068405151e-02 6.193589419126510620e-02 -1.082085594534873962e-01 9.416875988245010376e-02 -7.869513332843780518e-02 -4.963603615760803223e-02 -1.439167559146881104e-02 -4.419965296983718872e-02 -7.291034609079360962e-02 9.301761537790298462e-02 -4.004907608032226562e-02 1.980704814195632935e-02 -5.309720337390899658e-02 -1.050947308540344238e-01 4.274048656225204468e-02 -1.131116524338722229e-01 -7.499679923057556152e-02 -5.605220049619674683e-02 -9.925424307584762573e-02 6.939247995615005493e-02 -1.164299398660659790e-01 -3.852169215679168701e-02 -1.056708768010139465e-01 7.153937965631484985e-02 -4.269572347402572632e-02 -1.178705915808677673e-01 -5.602136254310607910e-03 7.861816138029098511e-02 -6.484733521938323975e-02 6.452044099569320679e-02 8.231516927480697632e-02 1.178593710064888000e-01 2.389936894178390503e-02 -8.529923856258392334e-02 1.486624032258987427e-02 4.841763526201248169e-02 2.290014177560806274e-02 9.535271674394607544e-02 1.185302957892417908e-01 -2.647937089204788208e-02 -1.190886124968528748e-01 4.235170036554336548e-02 1.776058226823806763e-02 -3.010750561952590942e-02 -7.102146744728088379e-02 9.830670803785324097e-02 -9.230176359415054321e-02 -6.513131409883499146e-02 -1.733403652906417847e-02 2.496067434549331665e-02 1.064477339386940002e-01 3.228878229856491089e-02 8.087385445833206177e-02 -1.071100234985351562e-01 -1.691225171089172363e-02 1.199269369244575500e-01 1.009498313069343567e-01 1.074690446257591248e-01 2.595043927431106567e-02 8.020717650651931763e-02 -6.745816767215728760e-02 -1.088192015886306763e-01 9.755726903676986694e-02 -3.227362036705017090e-02 4.663584381341934204e-02 -6.860205531120300293e-02 -6.944574415683746338e-02 -5.129150301218032837e-02 1.731341332197189331e-02 1.073262318968772888e-01 7.887638360261917114e-02 7.344938069581985474e-02 1.093306168913841248e-01 -1.041310876607894897e-01 -2.117915451526641846e-02 1.161619648337364197e-01 9.824950248003005981e-02 -8.226154744625091553e-02 -1.123388856649398804e-01 6.503624469041824341e-02 -6.811745464801788330e-02 -1.948457211256027222e-02 -5.618608742952346802e-02 2.011021226644515991e-02 -5.644528567790985107e-02 -3.967404365539550781e-03 4.549468308687210083e-02 -7.754480838775634766e-02 -3.746645897626876831e-02 3.675628453493118286e-02 -8.781895041465759277e-03 -9.025484323501586914e-04 1.003778725862503052e-02 -6.997951865196228027e-02 7.230726629495620728e-02 8.411663025617599487e-02 1.189106032252311707e-01 9.820362180471420288e-02 -9.751173108816146851e-02 -1.027635261416435242e-01 7.217063754796981812e-02 -7.743944227695465088e-02 -3.182527422904968262e-02 9.787479788064956665e-02 -9.756137430667877197e-02 2.913899719715118408e-03 5.586213618516921997e-02 1.366560906171798706e-02 1.638539880514144897e-02 -3.479030728340148926e-02 7.866782695055007935e-02 -1.036066338419914246e-01 -1.740302890539169312e-02 -7.818910479545593262e-02 -3.409907966852188110e-02 -8.233772218227386475e-02
-6.673875451087951660e-02 7.652769237756729126e-02 -8.108307421207427979e-02 7.363741844892501831e-02 -1.100617945194244385e-01 -1.162706166505813599e-01 -1.205366477370262146e-01 -2.654155343770980835e-02 1.022328361868858337e-01 1.017587557435035706e-01 -9.261094778776168823e-02 -1.688375324010848999e-02 1.073316708207130432e-01 6.355913728475570679e-02 9.909925609827041626e-02 -5.487444251775741577e-02 -3.756198287010192871e-02 6.695265322923660278e-02 -9.558823704719543457e-02 3.014814108610153198e-02 1.115113496780395508e-03 -2.158902585506439209e-03 -6.520096957683563232e-02 1.100299730896949768e-01 -1.012067794799804688e-01 3.865907341241836548e-02 -5.301512777805328369e-03 6.490533798933029175e-02 8.052098006010055542e-02 -3.837113827466964722e-02 8.947560936212539673e-02 5.028327554464340210e-02 2.303492277860641479e-02 -1.112579852342605591e-01 3.213532269001007080e-03 -1.829600334167480469e-02 -4.140914231538772583e-02 -6.433095037937164307e-02 -1.057471036911010742e-01 9.552199393510818481e-02 -5.725491046905517578e-02 4.266258329153060913e-02 1.034869328141212463e-01 -1.048006862401962280e-01 -5.277559161186218262e-02 7.181868702173233032e-02 -1.031871810555458069e-01 -8.851695060729980469e-02 5.510041862726211548e-02 5.574869364500045776e-02 -1.072720587253570557e-01 9.588661044836044312e-02 7.856843620538711548e-02 6.502344459295272827e-02 -2.594062685966491699e-02 -5.648650228977203369e-02 1.167414858937263489e-01 6.770814210176467896e-02 3.873821347951889038e-02 -9.061909466981887817e-02 -1.477065682411193848e-02 -9.934293478727340698e-02 3.015682101249694824e-03 5.095762759447097778e-02 -8.899169415235519409e-02 1.172193363308906555e-01 -9.056617319583892822e-02 -7.790014147758483887e-02 -5.781882256269454956e-02 -1.093664765357971191e-01 2.117957919836044312e-02 3.723981231451034546e-02 -5.043259263038635254e-02 -9.029384702444076538e-02 -3.462166339159011841e-02 -8.912838995456695557e-03 -5.368563532829284668e-02 1.933003216981887817e-02 -4.367005825042724609e-02 -2.430898696184158325e-02 -1.005608141422271729e-01 8.946455270051956177e-02 -4.201196879148483276e-02 2.619507163763046265e-02 7.815696299076080322e-03 7.684671133756637573e-02 -1.083917021751403809e-01 4.772839695215225220e-02 -1.135169342160224915e-01 3.299247473478317261e-02 -3.958778083324432373e-02 5.065798759460449219e-04 5.146994441747665405e-02 2.826202660799026489e-02 -3.732597082853317261e-02 -4.552964121103286743e-02 9.326822310686111450e-02 -4.003418982028961182e-02 -3.547763824462890625e-02 8.479537814855575562e-02 -4.509381204843521118e-02 -2.623833715915679932e-02 -6.615206599235534668e-03 5.224495381116867065e-02 7.596021145582199097e-02 -4.893791675567626953e-02 -6.440848112106323242e-02 -1.010647118091583252e-01 -4.649414122104644775e-02 -1.187705472111701965e-01 -1.012769564986228943e-01 -7.745196670293807983e-02 -3.388024866580963135e-03 1.592833548784255981e-02 1.547396928071975708e-02 -6.293013691902160645e-03 -3.526783734560012817e-02 -4.893093556165695190e-02 -1.179325133562088013e-01 -3.880158066749572754e-03 -8.754198253154754639e-02 -2.602666616439819336e-02 4.264184087514877319e-02 7.513061910867691040e-02 -6.654531508684158325e-02 6.629254668951034546e-02 1.110206469893455505e-01 -1.005669832229614258e-01 2.065206319093704224e-02 -6.251832842826843262e-02 2.276837825775146484e-03 2.155750244855880737e-02 6.249112635850906372e-02 1.120290681719779968e-01 -4.337157309055328369e-02 5.104698240756988525e-03 -6.732693314552307129e-02 9.359111636877059937e-02 4.869114607572555542e-02 4.336387664079666138e-02 -2.008941769599914551e-02 -8.559599518775939941e-02 3.722710162401199341e-02 -2.518958598375320435e-02 7.852520793676376343e-02 -8.981437981128692627e-02 -3.657760471105575562e-02 -9.635234624147415161e-02 9.402290731668472290e-02 1.640731841325759888e-02 8.243166655302047729e-02 7.543813437223434448e-02 -3.041215986013412476e-02 -5.050271749496459961e-03 -4.001469910144805908e-02 -3.619089722633361816e-02 1.187170967459678650e-01 -1.034067869186401367e-01 -6.228350102901458740e-03 7.013351470232009888e-02 -1.219446957111358643e-02 -3.637701272964477539e-02 -4.690525680780410767e-02 -7.842826843261718750e-02 -8.894497156143188477e-02 1.010752096772193909e-01 -6.186044216156005859e-02 -2.805911004543304443e-03 9.972503036260604858e-02 4.494897276163101196e-02 -1.759756356477737427e-02 1.059267595410346985e-01 -2.340961247682571411e-02 -9.959019720554351807e-02 4.240222275257110596e-03 -6.715460121631622314e-02 4.162378609180450439e-03 1.196908280253410339e-01 5.654747039079666138e-02 -6.677187979221343994e-03 -2.661120146512985229e-02 2.258709818124771118e-02 -1.198127493262290955e-01 -1.129666939377784729e-01 6.074962764978408813e-02 3.043984621763229370e-02 -4.654824733734130859e-02 1.151504889130592346e-01 -7.131233811378479004e-02 -9.267814457416534424e-02 9.836094826459884644e-02 -3.850531578063964844e-02 6.944005936384201050e-02 -7.433490455150604248e-02 8.293732255697250366e-02 -1.121925488114356995e-01 4.400577396154403687e-02 -4.959481954574584961e-02 -1.146748512983322144e-01 -8.706747740507125854e-02 -1.611823588609695435e-02 8.104283362627029419e-02 -1.573708653450012207e-02 4.811445623636245728e-02 1.115556880831718445e-01 6.969945877790451050e-02 -2.016723155975341797e-02 -1.528617739677429199e-02 -6.065741181373596191e-03 6.750119477510452271e-02 1.480653136968612671e-02 -7.430548965930938721e-02 1.016729325056076050e-02 1.023832708597183228e-02 7.436596602201461792e-02 -1.142774075269699097e-01 -1.163965985178947449e-01 2.762161940336227417e-02 6.343328207731246948e-02 -1.168538257479667664e-01 -4.791532456874847412e-02 -5.772560834884643555e-03 -6.307451426982879639e-02 -1.035296544432640076e-01 7.459200918674468994e-03 7.348332554101943970e-02 -1.711835712194442749e-02 1.085390523076057434e-01 1.058333367109298706e-02 1.130386441946029663e-02 2.932821959257125854e-02 9.597607702016830444e-02 -1.096057742834091187e-01 9.221544116735458374e-02 4.829906672239303589e-02 1.080056801438331604e-01 -4.301128536462783813e-02 8.322406560182571411e-02 8.211367577314376831e-02 1.143622025847434998e-01 5.775436013936996460e-02 6.170862168073654175e-02 7.825728505849838257e-02 9.792653471231460571e-02 4.988477379083633423e-02 6.908617168664932251e-02 9.046421200037002563e-02 1.129580363631248474e-01 3.998916596174240112e-02 -6.252267956733703613e-02 -8.568891882896423340e-02 1.928550750017166138e-02 -1.321376860141754150e-02 -7.256478071212768555e-03 6.847679615020751953e-04 1.002931520342826843e-01 3.687710314989089966e-02 -9.798891842365264893e-02 -1.013717800378799438e-02 4.279837757349014282e-02 1.102280989289283752e-01 6.797685474157333374e-02 9.775552898645401001e-02 -8.677309006452560425e-02 1.078652814030647278e-01 3.260664641857147217e-03 7.426919788122177124e-02 -4.344249516725540161e-02 4.736669361591339111e-03 4.016978293657302856e-02 -1.509223878383636475e-02 -1.528092473745346069e-02 8.400850743055343628e-02 -1.240709424018859863e-02 1.411337405443191528e-02 -1.848027110099792480e-02 7.180521637201309204e-02 -6.817361712455749512e-02 -8.401026576757431030e-02 9.314832836389541626e-02 8.020596951246261597e-02 -1.165403425693511963e-01 -1.191321387887001038e-01 2.773200720548629761e-02 1.168584451079368591e-01 -4.511956870555877686e-02 -3.888622671365737915e-02 8.962183445692062378e-02 -8.376482129096984863e-02 -1.278638839721679688e-02 -3.138249367475509644e-02 -1.071816682815551758e-02 4.568172246217727661e-02 -1.920362561941146851e-02 -9.190420806407928467e-02 -1.011309027671813965e-02 4.147440940141677856e-02 -1.045488417148590088e-01 -7.890772819519042969e-02 -2.151325345039367676e-02 1.158110424876213074e-01 -5.939696729183197021e-02 1.151794940233230591e-02 -2.974868565797805786e-02 -1.078247874975204468e-01 -8.723054826259613037e-02 1.062553897500038147e-01 5.502592772245407104e-02 -4.181754589080810547e-02 8.983363956212997437e-02 1.068649813532829285e-01 -5.132406949996948242e-04 -3.105712682008743286e-02 1.182835474610328674e-01 -2.304709702730178833e-02 -7.570648193359375000e-02 -8.044667541980743408e-02 7.257439941167831421e-02 1.641080528497695923e-02 1.196272894740104675e-01 3.725916892290115356e-02 -8.433888852596282959e-02 5.622113496065139771e-02 5.529441684484481812e-02 2.442916482686996460e-02 3.149243444204330444e-02 -9.218402951955795288e-02 -8.985877037048339844e-02 8.878801017999649048e-02 9.908387809991836548e-02 6.113082915544509888e-02 7.543002814054489136e-02 -3.912866115570068359e-03 -1.735638827085494995e-02 -1.065308228135108948e-01 -5.661115050315856934e-03 -6.145362555980682373e-02 1.202882900834083557e-01 -5.350232124328613281e-02 -3.185817599296569824e-02 9.879641234874725342e-03 -6.785851716995239258e-02 -1.024271398782730103e-01 5.431810766458511353e-02 -8.283492922782897949e-02 -9.120377898216247559e-02 5.512242764234542847e-02 -7.526318728923797607e-02 -6.808884441852569580e-02 1.073627397418022156e-01 -3.941579163074493408e-02 3.158248215913772583e-02 2.248745411634445190e-02 -7.253535091876983643e-03 -6.233673542737960815e-02 8.261112123727798462e-02 3.516911715269088745e-02 -1.058503538370132446e-01 -2.433480322360992432e-02 1.058053225278854370e-02 -8.007138967514038086e-02 6.904437392950057983e-02 -9.792140126228332520e-02 4.598898440599441528e-02 -1.754885166883468628e-02 -3.169436007738113403e-02 -5.415264517068862915e-02 -6.455183029174804688e-05 3.837739676237106323e-02 -1.095749139785766602e-01 -7.490698993206024170e-02 -1.672844588756561279e-02 -4.498764127492904663e-02 -4.536172002553939819e-02 4.107192903757095337e-02 -1.050227135419845581e-01 9.523927420377731323e-02 7.311581820249557495e-02 1.157217845320701599e-01 1.133466511964797974e-02 9.089920669794082642e-02 7.453293353319168091e-02 -9.962809085845947266e-02 1.098087653517723083e-01 6.899476796388626099e-02 9.606678038835525513e-02 3.310351818799972534e-02 1.020605936646461487e-01 -9.509786963462829590e-02 -1.061507165431976318e-01 -7.690215110778808594e-02 -6.004966795444488525e-03 -3.922443091869354248e-02 -5.314543098211288452e-02 -5.122625827789306641e-02 3.796958178281784058e-02 2.889879792928695679e-02 1.016529724001884460e-01 5.670616775751113892e-02 1.548001915216445923e-02
1.755961030721664429e-02 -1.101436167955398560e-01 -9.091723710298538208e-02 7.791046053171157837e-02 -8.120737969875335693e-02 1.533182710409164429e-02 -1.016968339681625366e-01 1.129163578152656555e-01 -4.274348169565200806e-02 5.676823109388351440e-02 9.126140922307968140e-02 -8.409820497035980225e-02 7.564856857061386108e-02 -9.121641516685485840e-02 1.129425242543220520e-01 1.121520772576332092e-01 5.355792492628097534e-02 -6.159206852316856384e-02 8.985998481512069702e-02 -5.531315505504608154e-02 5.673142522573471069e-02 -8.313283324241638184e-02 -1.124473661184310913e-01 -5.141010135412216187e-02 2.705458551645278931e-02 1.199598088860511780e-01 1.191996857523918152e-01 8.472830802202224731e-02 1.093318313360214233e-02 7.095647603273391724e-02 9.317585080862045288e-02 -9.819929301738739014e-02 8.506297320127487183e-02 2.215690910816192627e-03 3.069066256284713745e-02 3.551587462425231934e-03 -1.041765213012695312e-01 -1.536528766155242920e-02 6.842275708913803101e-02 -1.974438130855560303e-02 5.094147473573684692e-02 -6.735612452030181885e-02 -3.826087713241577148e-02 4.463130980730056763e-02 -1.581449806690216064e-02 7.559119910001754761e-02 1.699505001306533813e-02 -8.337845653295516968e-02 -1.177202388644218445e-01 1.266064494848251343e-02 -7.348784804344177246e-02 -9.220378845930099487e-02 2.504020929336547852e-03 9.322995692491531372e-02 1.165634766221046448e-01 -1.085231080651283264e-01 4.168628901243209839e-02 -9.491671621799468994e-02 2.992167323827743530e-02 4.366002231836318970e-02 2.306013554334640503e-02 4.464916139841079712e-02 9.865912050008773804e-02 4.772009700536727905e-02 -4.461803287267684937e-02 1.050918549299240112e-02 1.132742390036582947e-01 9.645845741033554077e-02 1.148849353194236755e-01 -4.357456415891647339e-02 2.890471369028091431e-02 -9.059968590736389160e-02 -6.182799488306045532e-02 -3.844962269067764282e-02 -5.297693610191345215e-02 -1.040621325373649597e-01 8.056510239839553833e-02 6.462372839450836182e-03 9.480281919240951538e-02 1.742912083864212036e-02 8.545361459255218506e-03 -2.661073952913284302e-02 -8.513760566711425781e-02 -8.174101263284683228e-02 -2.907698601484298706e-02 7.556241005659103394e-02 1.026524230837821960e-01 1.185227110981941223e-01 -1.010151281952857971e-01 -1.076682358980178833e-01 2.883461862802505493e-02 2.282861620187759399e-02 1.120571568608283997e-01 6.544759124517440796e-02 9.501723200082778931e-02 1.161449402570724487e-02 -1.030757278203964233e-02 3.788366168737411499e-02 -1.056391745805740356e-02 1.189369335770606995e-01 -7.464475929737091064e-02 -2.086148411035537720e-02 9.042634814977645874e-02 7.677277177572250366e-02 2.876924723386764526e-02 5.928914994001388550e-02 -2.856599539518356323e-02 -2.468863129615783691e-02 -2.148447185754776001e-02 -7.071452587842941284e-02 5.534384399652481079e-02 2.384183555841445923e-02 1.555810123682022095e-02 -4.956828802824020386e-02 4.292718321084976196e-02 4.753389209508895874e-02 1.276629418134689331e-02 -3.844270110130310059e-02 3.867279738187789917e-02 -1.177093386650085449e-01 1.095926538109779358e-01 2.849608659744262695e-03 1.052109375596046448e-01 -7.686667144298553467e-02 5.987334996461868286e-02 7.252936810255050659e-02 -1.083119809627532959e-01 -1.146714463829994202e-01 -1.394367218017578125e-02 9.900251775979995728e-02 -9.087608009576797485e-02 2.977354079484939575e-02 -8.918438851833343506e-02 2.338970452547073364e-02 -1.205925643444061279e-02 -6.270334124565124512e-02 -9.092634916305541992e-02 5.940108746290206909e-02 -9.213548898696899414e-02 6.725554913282394409e-02 4.895149916410446167e-02 1.061889603734016418e-01 -1.139891371130943298e-01 -1.176493763923645020e-01 3.340527415275573730e-03 2.706382423639297485e-02 -2.159715443849563599e-02 -4.530799388885498047e-02 -9.049928933382034302e-02 7.340449839830398560e-02 4.407655447721481323e-02 4.246265441179275513e-02 -6.056561321020126343e-02 2.910199016332626343e-02 -8.675642311573028564e-02 7.666201144456863403e-02 -1.161089837551116943e-01 -2.643322199583053589e-02 6.630200892686843872e-02 3.654920309782028198e-02 -1.180126518011093140e-02 4.339177161455154419e-02 2.233893424272537231e-02 3.079452365636825562e-02 -5.677872896194458008e-02 2.900198101997375488e-03 7.868207991123199463e-03 1.876924186944961548e-02 -1.172617673873901367e-01 6.073347479104995728e-02 -1.645413041114807129e-02 -1.190022900700569153e-01 3.802313655614852905e-02 2.439678460359573364e-02 1.906255632638931274e-02 -8.412678539752960205e-02 -2.604901790618896484e-02 5.019130557775497437e-02 -1.179223656654357910e-01 1.063482239842414856e-01 6.159336119890213013e-02 5.114875733852386475e-03 1.051244065165519714e-01 -4.041248559951782227e-02 4.842404276132583618e-02 -8.974313735961914062e-02 -1.060003042221069336e-01 3.385704010725021362e-02 -1.250535249710083008e-02 3.603281825780868530e-02 -6.654834747314453125e-02 -9.942986071109771729e-02 -5.391057580709457397e-02 -6.469886004924774170e-02 3.923899680376052856e-02 1.064575389027595520e-01 -7.670461386442184448e-02 -2.667006850242614746e-02 -6.789338588714599609e-02 1.142079010605812073e-01 -8.856235444545745850e-02 8.420824259519577026e-02 -2.001837641000747681e-02 4.180058091878890991e-02 4.782190173864364624e-02 -1.145303845405578613e-01 -1.183318570256233215e-01 -7.780095189809799194e-02 7.666388899087905884e-02 -8.054272085428237915e-02 -1.049110591411590576e-01 -5.487854033708572388e-02 1.028679832816123962e-01 -4.887521266937255859e-03 -6.384387612342834473e-03 1.664433628320693970e-02 -4.712448269128799438e-02 -1.193223893642425537e-02 5.129937082529067993e-02 -6.876297295093536377e-02 -4.657953977584838867e-04 8.990228921175003052e-02 1.693310588598251343e-02 -1.064151972532272339e-01 -1.046689897775650024e-01 -1.054510399699211121e-01 -1.047445088624954224e-02 -3.782020509243011475e-02 -7.998417317867279053e-02 -2.134539186954498291e-02 -7.085835933685302734e-02 4.927801340818405151e-02 1.006287857890129089e-01 9.425308555364608765e-02 1.427806168794631958e-02 4.928872734308242798e-02 7.200252264738082886e-02 -6.015323102474212646e-03 7.065170258283615112e-02 1.103302761912345886e-01 1.203754767775535583e-01 -2.790839970111846924e-02 -8.514681458473205566e-02 -4.121308028697967529e-02 -1.048533767461776733e-01 7.816309481859207153e-02 -4.517032951116561890e-02 -8.397407084703445435e-02 3.201015293598175049e-03 1.190013363957405090e-01 7.881895452737808228e-02 -1.508223265409469604e-02 2.461958676576614380e-02 2.005585283041000366e-02 9.454511106014251709e-03 9.555316716432571411e-02 -7.191233336925506592e-03 7.769375294446945190e-02 4.735317081212997437e-02 -7.103092223405838013e-02 2.048986405134201050e-02 7.337006181478500366e-02 6.062131375074386597e-02 -5.731189996004104614e-02 8.814572542905807495e-02 5.655137449502944946e-02 8.522044867277145386e-02 3.073938190937042236e-03 -4.403524100780487061e-03 -3.179112076759338379e-02 1.104388162493705750e-01 -1.530731469392776489e-02 -3.132131695747375488e-02 -4.532466083765029907e-02 -4.074237495660781860e-02 4.155191034078598022e-02 3.406804054975509644e-02 2.427353709936141968e-02 8.601460605859756470e-02 -6.619405001401901245e-02 -4.051360487937927246e-02 4.484944045543670654e-03 1.051091477274894714e-01 1.060567274689674377e-01 -9.717093408107757568e-02 -5.257585644721984863e-02 1.008287295699119568e-01 -1.559884846210479736e-02 5.241922289133071899e-02 -4.852299392223358154e-02 7.887349277734756470e-02 -5.206714570522308350e-02 2.797491103410720825e-02 -6.878942251205444336e-02 5.355761200189590454e-02 1.874686032533645630e-02 1.156831532716751099e-02 5.011140555143356323e-02 9.817659109830856323e-02 -3.515423089265823364e-02 -4.896678775548934937e-02 -8.941558003425598145e-02 1.586001366376876831e-02 1.674658805131912231e-02 1.058929339051246643e-01 -5.033025890588760376e-02 -1.182924062013626099e-01 -1.463740319013595581e-02 2.495207637548446655e-02 1.003568395972251892e-01 -1.062852889299392700e-02 -3.747868537902832031e-02 9.084620326757431030e-02 1.316640526056289673e-02 3.805483132600784302e-02 2.795586735010147095e-02 -5.331739783287048340e-03 3.725796937942504883e-03 -8.130270242691040039e-02 7.611372321844100952e-02 -8.793680369853973389e-02 -2.741987258195877075e-02 -1.000864803791046143e-01 -9.170868992805480957e-02 1.936212182044982910e-03 -8.455967903137207031e-02 -9.912607073783874512e-02 4.276619106531143188e-02 9.097785502672195435e-02 2.458515018224716187e-02 -6.791068613529205322e-02 -3.777258843183517456e-02 -6.886690855026245117e-03 -9.760111570358276367e-02 -2.399586141109466553e-03 6.861966103315353394e-02 7.340274006128311157e-02 -1.116683334112167358e-02 3.243897110223770142e-02 1.376935094594955444e-02 -1.203759685158729553e-01 -6.514787673950195312e-04 -3.025454282760620117e-02 1.091142818331718445e-01 -7.519774138927459717e-02 -4.418907314538955688e-02 8.142923563718795776e-02 8.330801874399185181e-02 5.367497354745864868e-02 6.424289196729660034e-02 5.142896622419357300e-02 1.075748130679130554e-01 9.789354354143142700e-02 5.473291128873825073e-02 -6.337882578372955322e-02 -1.088579744100570679e-02 -2.531291544437408447e-02 -1.739817857742309570e-02 5.015452951192855835e-02 1.522444933652877808e-02 -5.864837765693664551e-02 4.960287362337112427e-02 -6.198010593652725220e-02 1.017884090542793274e-01 1.119380220770835876e-01 -1.936116069555282593e-02 8.745788782835006714e-02 -1.165730208158493042e-01 -5.524355918169021606e-02 -1.725593209266662598e-02 -3.574661165475845337e-02 4.348809272050857544e-02 -5.515813827514648438e-03 -5.516447871923446655e-02 -6.213997676968574524e-02 5.450140684843063354e-02 4.788186401128768921e-02 6.180980056524276733e-02 9.272795170545578003e-02 6.749352067708969116e-02 -9.282007813453674316e-02 1.070278063416481018e-01 -1.079725474119186401e-01 1.131866127252578735e-02 2.142118662595748901e-02 7.456414401531219482e-03 -1.469866931438446045e-02 3.816898912191390991e-02 -1.102847605943679810e-02 -8.262415230274200439e-02 -4.235210269689559937e-02 1.127799078822135925e-01 -4.332254081964492798e-02 9.407346695661544800e-02 -1.570019870996475220e-02 -1.023936271667480469e-02 -3.879886865615844727e-02 4.652713984251022339e-02 -1.190007328987121582e-01 3.129339963197708130e-02
-9.914343059062957764e-02 7.852552086114883423e-02 8.398646861314773560e-02 8.887990564107894897e-02 -2.848889678716659546e-02 -6.656937301158905029e-02 1.053378656506538391e-01 1.697849482297897339e-02 -2.856256067752838135e-02 1.090950518846511841e-02 -8.004367351531982422e-02 -1.004044860601425171e-01 5.369467288255691528e-02 -1.043932065367698669e-01 6.060927361249923706e-02 -7.730391621589660645e-02 9.108347445726394653e-02 -7.622505724430084229e-02 1.081971004605293274e-01 -2.623804658651351929e-02 7.848822325468063354e-02 1.087472066283226013e-01 -7.995618879795074463e-02 2.359094470739364624e-02 8.882940560579299927e-02 1.651789993047714233e-02 -2.074533700942993164e-02 -9.829106926918029785e-02 4.302635788917541504e-04 8.941651135683059692e-02 5.201090127229690552e-02 1.095251366496086121e-01 1.141629889607429504e-01 1.940537244081497192e-02 -1.207226514816284180e-02 -1.349762827157974243e-02 1.684597879648208618e-02 5.770502239465713501e-02 -9.490016102790832520e-02 -6.523860991001129150e-02 -1.199727058410644531e-01 3.216021507978439331e-02 6.357078999280929565e-02 -2.403585612773895264e-02 -2.347481995820999146e-02 7.534471899271011353e-02 5.953583866357803345e-02 -1.116771101951599121e-01 1.121175065636634827e-01 8.863284438848495483e-02 1.054966077208518982e-01 -1.682221144437789917e-02 -6.371223926544189453e-02 9.130256623029708862e-02 -9.495380520820617676e-02 2.057921141386032104e-02 -8.020356297492980957e-02 -6.266066431999206543e-02 -7.415002584457397461e-02 5.658494681119918823e-02 -1.091884002089500427e-01 -2.802584320306777954e-02 -1.313003897666931152e-02 1.340753585100173950e-02 1.121232137084007263e-01 8.271782845258712769e-02 -7.370828837156295776e-02 -5.106523633003234863e-02 -6.104352325201034546e-02 -6.421087682247161865e-02 2.348493784666061401e-02 -7.372072339057922363e-02 1.144787594676017761e-01 -2.321605384349822998e-02 1.824962347745895386e-02 -8.739246428012847900e-02 3.189555555582046509e-02 1.223107427358627319e-02 9.741865843534469604e-02 -9.496368467807769775e-03 8.453302085399627686e-03 7.400490343570709229e-03 7.357939332723617554e-02 7.300736755132675171e-02 2.177669852972030640e-02 -9.161887317895889282e-02 -4.000777751207351685e-02 8.979715406894683838e-03 -8.320465683937072754e-02 -2.990145981311798096e-02 5.157689005136489868e-02 7.944665849208831787e-03 3.187245875597000122e-02 9.425178915262222290e-02 9.446536749601364136e-02 6.882230192422866821e-02 8.245084434747695923e-02 3.688737750053405762e-03 7.970482856035232544e-02 -6.039359793066978455e-02 -1.303599029779434204e-02 -9.144885092973709106e-02 4.784292727708816528e-02 3.108478337526321411e-02 1.207009926438331604e-01 7.976482063531875610e-02 5.136009305715560913e-02 9.749961644411087036e-02 -1.127234995365142822e-01 -4.325286298990249634e-02 -8.546765148639678955e-02 1.057843640446662903e-01 3.880769759416580200e-02 -4.191295057535171509e-02 -9.453222155570983887e-04 8.154898136854171753e-02 -8.214861154556274414e-02 2.161265164613723755e-02 7.418103516101837158e-03 -4.394313693046569824e-02 6.541886180639266968e-02 1.009393259882926941e-01 2.538845688104629517e-02 -5.907333269715309143e-02 -8.060097694396972656e-03 4.644384235143661499e-02 -9.714278578758239746e-02 -5.593135952949523926e-03 3.619787842035293579e-02 -1.091884821653366089e-02 4.952294379472732544e-02 -1.063403487205505371e-01 6.308224052190780640e-02 1.062109395861625671e-01 -4.485528916120529175e-02 -6.102956458926200867e-02 1.172871813178062439e-01 -3.794125467538833618e-02 -7.296739518642425537e-02 6.003331393003463745e-02 7.409318536520004272e-02 7.581657916307449341e-02 4.706754535436630249e-02 1.041121110320091248e-01 -7.451830804347991943e-02 1.743143051862716675e-02 -4.245261847972869873e-02 1.906292885541915894e-02 7.939443737268447876e-02 -1.159894913434982300e-01 -8.254887163639068604e-02 -7.479980587959289551e-02 -7.598757743835449219e-02 -5.510523915290832520e-04 -5.189735442399978638e-02 7.189286500215530396e-02 -8.602772653102874756e-02 1.102430894970893860e-01 9.849203377962112427e-02 8.518897742033004761e-02 7.988671213388442993e-02 9.567553550004959106e-02 -1.133505180478096008e-01 -9.944745898246765137e-02 -8.726516366004943848e-02 -4.882790148258209229e-03 2.965376526117324829e-02 -9.071350097656250000e-02 2.117427438497543335e-02 -4.787457734346389771e-02 8.853276818990707397e-02 4.787131398916244507e-02 9.571171551942825317e-02 7.878691703081130981e-02 6.746987253427505493e-02 4.651153832674026489e-02 -3.132163733243942261e-02 1.070738062262535095e-01 9.616228193044662476e-02 -1.059558317065238953e-01 -2.274848520755767822e-03 -1.429525762796401978e-02 7.243537157773971558e-02 -1.028019413352012634e-01 3.154005855321884155e-02 7.718523591756820679e-02 2.629659324884414673e-02 1.179021671414375305e-01 1.114184334874153137e-01 -2.927640080451965332e-02 -7.320187985897064209e-02 -7.049740850925445557e-02 -9.634747356176376343e-02 -1.136638000607490540e-01 4.387748986482620239e-02 -4.288376867771148682e-02 8.641948550939559937e-02 -4.270610958337783813e-02 -2.708747237920761108e-02 -4.059787839651107788e-02 -3.596457093954086304e-02 1.515813171863555908e-03 5.428642034530639648e-04 5.231671780347824097e-02 -8.892953395843505859e-02 2.095588296651840210e-02 2.149369567632675171e-02 2.923088520765304565e-02 9.388471394777297974e-02 -1.761911064386367798e-02 -1.035774424672126770e-01 9.265398234128952026e-02 -5.425488948822021484e-02 1.664327830076217651e-02 2.141871303319931030e-02 1.055610403418540955e-01 6.393186748027801514e-03 -5.161444097757339478e-02 7.769268006086349487e-02 -8.948506414890289307e-02 7.799307256937026978e-02 -2.601838856935501099e-02 -8.752422034740447998e-02 5.814955383539199829e-02 5.547510832548141479e-02 -6.443772464990615845e-02 7.546753436326980591e-02 -4.895288497209548950e-02 -2.587484568357467651e-02 -5.306597054004669189e-02 1.287328451871871948e-02 -1.400343328714370728e-02 9.193725883960723877e-03 5.676027387380599976e-02 1.542173326015472412e-03 5.505450069904327393e-03 2.547407895326614380e-02 2.218370884656906128e-02 -7.040664553642272949e-02 9.226242452859878540e-02 -2.464476227760314941e-02 -9.301885962486267090e-03 -1.104376316070556641e-01 -9.976183623075485229e-02 2.727728337049484253e-02 4.939284175634384155e-02 6.243687123060226440e-02 9.779538959264755249e-02 -2.001713961362838745e-02 -3.751698881387710571e-02 2.145247906446456909e-02 1.166336759924888611e-01 -6.843708455562591553e-02 5.519755184650421143e-03 5.277619510889053345e-02 6.115863472223281860e-02 -2.918788045644760132e-02 3.299405425786972046e-02 -3.646140545606613159e-02 -1.338212192058563232e-02 2.278419584035873413e-02 -1.206671595573425293e-01 9.293579310178756714e-02 2.749092876911163330e-03 -1.177031099796295166e-01 4.027568548917770386e-02 -6.406514346599578857e-02 -3.344353288412094116e-02 -8.692984282970428467e-02 1.011664345860481262e-01 -7.291778922080993652e-03 1.184373423457145691e-01 -7.798078656196594238e-02 -7.931403815746307373e-03 -5.985036492347717285e-03 -6.444363296031951904e-02 -6.849347054958343506e-02 -6.162687763571739197e-02 -1.075910255312919617e-01 -4.576276987791061401e-02 -1.140719652175903320e-02 -5.800195038318634033e-03 -4.618830978870391846e-03 9.074502438306808472e-02 -2.049663662910461426e-02 -4.480218887329101562e-02 -3.628953546285629272e-02 1.152969673275947571e-01 5.581182986497879028e-02 -4.429696500301361084e-02 -3.411774337291717529e-02 -6.324626505374908447e-03 -2.518107742071151733e-02 -3.351972997188568115e-02 6.212272495031356812e-02 -4.548311978578567505e-02 -6.279748678207397461e-02 -9.619013965129852295e-02 -2.835573256015777588e-02 6.192285567522048950e-02 9.395348280668258667e-02 5.870418995618820190e-02 -1.392440497875213623e-02 -5.162641406059265137e-03 -2.238390594720840454e-02 -1.026368811726570129e-01 -1.137709766626358032e-01 6.388437002897262573e-02 -9.150806069374084473e-02 -4.531430453062057495e-02 -3.358952701091766357e-03 -6.579136103391647339e-02 1.088004782795906067e-01 -7.894467562437057495e-02 -6.423470377922058105e-02 -3.722303360700607300e-02 -1.051660254597663879e-01 2.306944876909255981e-02 -4.957232624292373657e-02 -1.182584315538406372e-01 2.093113213777542114e-02 -9.677129983901977539e-02 -1.362632215023040771e-02 2.329447120428085327e-02 6.936772912740707397e-02 -2.762747555971145630e-02 -2.802229672670364380e-02 8.704540878534317017e-02 9.228289127349853516e-04 -8.920962363481521606e-02 7.651569694280624390e-02 2.370014041662216187e-02 -7.681784778833389282e-02 8.723271638154983521e-02 -4.574257880449295044e-02 3.449609130620956421e-02 3.611815720796585083e-02 -9.204449504613876343e-02 6.842226535081863403e-02 -1.177491098642349243e-01 9.312672168016433716e-02 6.768921762704849243e-02 3.764847666025161743e-02 -1.189380288124084473e-01 9.776037186384201050e-02 7.401799410581588745e-02 1.132103726267814636e-01 1.103554889559745789e-01 -2.689070999622344971e-03 -3.021419048309326172e-02 -5.434501916170120239e-02 -4.791094362735748291e-02 1.067756637930870056e-01 -4.646146297454833984e-02 -1.119278669357299805e-01 -4.046154022216796875e-02 -2.937749028205871582e-02 1.182694509625434875e-01 -6.340953707695007324e-02 -8.836302161216735840e-02 8.985484391450881958e-02 1.456769555807113647e-02 -4.504815489053726196e-02 1.244790107011795044e-02 1.132412031292915344e-01 -7.504245638847351074e-02 -1.173771619796752930e-01 5.503962188959121704e-02 1.168000623583793640e-01 -2.332164347171783447e-02 -4.310824722051620483e-02 1.010756418108940125e-01 4.028984159231185913e-02 -9.825120866298675537e-02 1.137946769595146179e-01 9.863296896219253540e-02 5.101571232080459595e-02 7.068683952093124390e-02 4.929292947053909302e-02 -6.920785456895828247e-02 9.418772906064987183e-02 -1.166226342320442200e-01 1.611223071813583374e-02 -6.505027413368225098e-04 -6.349707394838333130e-02 9.792336076498031616e-02 -1.123701259493827820e-01 9.608434885740280151e-02 -4.631215333938598633e-02 -8.207339048385620117e-02 -1.135215237736701965e-01 1.053826883435249329e-01 -3.059626370668411255e-02 3.477553278207778931e-02 -1.411882787942886353e-02 4.938337951898574829e-02 6.985639780759811401e-02 3.910917788743972778e-02 -1.253930479288101196e-02 -8.093401789665222168e-02
7.316992431879043579e-02 2.127126604318618774e-02 2.939295023679733276e-02 -9.393960237503051758e-02 3.308580070734024048e-02 6.623590737581253052e-02 4.165179282426834106e-02 8.611332625150680542e-02 4.432479292154312134e-02 -7.489775121212005615e-02 -2.454093098640441895e-02 -1.143060773611068726e-01 -5.936273187398910522e-02 7.361642271280288696e-02 1.006058976054191589e-01 -1.108829230070114136e-01 5.124997347593307495e-02 6.676875799894332886e-02 -7.237556576728820801e-02 1.011672094464302063e-01 1.115523949265480042e-01 1.280926167964935303e-03 6.118343025445938110e-02 -4.555828124284744263e-02 -4.601141810417175293e-02 -4.454829543828964233e-02 -1.051633730530738831e-01 -1.070055589079856873e-01 -3.898873180150985718e-02 -9.464243054389953613e-02 -6.432619690895080566e-02 -9.752491116523742676e-02 -8.837588876485824585e-02 -4.206085205078125000e-02 -8.795220404863357544e-02 1.097025647759437561e-01 -8.759260177612304688e-02 -8.170098066329956055e-02 -8.109420537948608398e-02 -1.074444502592086792e-02 -8.125733584165573120e-02 -2.468318492174148560e-02 -3.077484667301177979e-02 1.001461222767829895e-01 4.648629575967788696e-02 -6.287299096584320068e-02 -4.610714316368103027e-02 -7.887652516365051270e-02 -2.743821591138839722e-02 1.143284961581230164e-01 -6.014988571405410767e-02 8.891289681196212769e-02 5.700998008251190186e-03 3.668985515832901001e-02 -1.102700307965278625e-01 9.652464836835861206e-02 4.526411741971969604e-02 -1.128395870327949524e-01 1.137958690524101257e-01 -9.945045411586761475e-02 5.742660909891128540e-02 -1.066751778125762939e-02 -1.572041958570480347e-02 1.370824128389358521e-02 1.142591983079910278e-02 2.002324908971786499e-02 9.004298597574234009e-02 5.451988428831100464e-02 -8.839033544063568115e-02 1.201776489615440369e-01 4.283078014850616455e-03 -4.217538982629776001e-02 -1.153944283723831177e-01 3.934215754270553589e-02 -2.160055935382843018e-02 -7.597620785236358643e-02 1.150278225541114807e-01 1.170567646622657776e-01 -8.131957799196243286e-02 1.763655990362167358e-02 -6.933516263961791992e-02 1.705244928598403931e-02 -5.687206238508224487e-02 8.525326102972030640e-02 -2.053210884332656860e-02 -2.964211255311965942e-02 8.318870514631271362e-02 4.104248434305191040e-02 1.451920717954635620e-02 1.155675128102302551e-01 8.870147168636322021e-03 -1.164644360542297363e-01 2.595043927431106567e-02 -8.178326487541198730e-02 -4.916042089462280273e-03 -5.343638360500335693e-02 6.066667288541793823e-02 2.263901382684707642e-02 2.891227602958679199e-03 -9.481285512447357178e-02 -6.117409095168113708e-02 9.767030924558639526e-02 -6.665462255477905273e-02 -1.600289344787597656e-02 -9.018990397453308105e-02 1.115505322813987732e-01 -4.471214860677719116e-02 1.284370571374893188e-02 6.388857215642929077e-02 2.007583528757095337e-02 -9.908664226531982422e-02 -5.470760166645050049e-03 -4.344362020492553711e-02 -6.291986256837844849e-02 7.123818248510360718e-02 6.306534260511398315e-02 -4.133496433496475220e-02 -6.761699914932250977e-04 8.574377745389938354e-02 -8.961326628923416138e-02 -8.224534243345260620e-02 -1.132657229900360107e-01 3.231047838926315308e-02 2.952200919389724731e-02 1.050641313195228577e-01 1.053763106465339661e-01 1.033855229616165161e-02 -1.565477252006530762e-02 5.683327466249465942e-02 -7.376231253147125244e-03 -2.933402359485626221e-02 6.875220686197280884e-02 -8.806958794593811035e-02 1.017856970429420471e-01 -5.698737502098083496e-02 -5.559776723384857178e-02 -1.867689192295074463e-03 -4.060947149991989136e-02 7.779752463102340698e-02 -1.079092621803283691e-01 -5.432027578353881836e-02 1.048661544919013977e-01 -1.083789020776748657e-02 2.373329550027847290e-02 -4.069447517395019531e-03 -9.886759519577026367e-02 -4.576822370290756226e-02 1.182087883353233337e-01 5.495638400316238403e-02 -5.667902529239654541e-02 2.753060311079025269e-02 -8.255475759506225586e-02 1.044300943613052368e-02 -3.612404316663742065e-02 8.675446361303329468e-02 1.134509518742561340e-01 1.049543246626853943e-01 -2.113337814807891846e-02 -1.202741265296936035e-02 4.526013880968093872e-02 3.094398230314254761e-02 2.070801705121994019e-02 6.825439631938934326e-03 -4.112000763416290283e-02 1.183013692498207092e-01 -4.463537037372589111e-02 -6.061998009681701660e-02 8.708157390356063843e-02 4.442643374204635620e-02 4.564235359430313110e-02 -1.850132644176483154e-02 -3.666528314352035522e-02 3.109104186296463013e-02 -7.462176680564880371e-02 6.177046149969100952e-02 1.123951002955436707e-01 2.058088034391403198e-02 1.026196256279945374e-01 7.538960129022598267e-02 -8.198507130146026611e-03 -1.059863492846488953e-01 -1.442106068134307861e-02 2.697411924600601196e-02 8.662994951009750366e-02 -1.133713722229003906e-01 -1.015747487545013428e-01 9.553872048854827881e-03 -8.295179903507232666e-02 -1.947698742151260376e-02 9.642704576253890991e-02 4.560973495244979858e-02 4.862982779741287231e-02 -8.322969079017639160e-02 -7.040404528379440308e-02 -6.469118595123291016e-02 7.751122862100601196e-02 -1.192573383450508118e-01 5.174610763788223267e-02 -7.934947311878204346e-02 7.396308332681655884e-02 -1.067448854446411133e-01 -7.890398055315017700e-02 9.089571982622146606e-02 -1.384659111499786377e-02 1.069355756044387817e-02 1.067715957760810852e-01 -8.806061744689941406e-02 -4.471116513013839722e-02 -7.080261409282684326e-02 -7.790853083133697510e-02 7.031895965337753296e-02 4.119741171598434448e-02 -8.284914493560791016e-02 -1.082227453589439392e-01 1.091039255261421204e-01 -1.079674661159515381e-01 -1.032992601394653320e-01 -1.105116084218025208e-01 -2.281185984611511230e-02 6.981546431779861450e-02 -4.687085002660751343e-02 -6.999671459197998047e-02 4.849294573068618774e-02 2.809792011976242065e-02 1.078327223658561707e-01 -5.091280490159988403e-02 -1.122076585888862610e-01 -1.186608895659446716e-01 -1.038844063878059387e-01 2.741519361734390259e-02 9.828328341245651245e-02 -2.756973356008529663e-02 -1.064507290720939636e-01 8.897251635789871216e-02 -1.023132428526878357e-01 -2.551284432411193848e-02 -7.469825446605682373e-02 8.657624572515487671e-02 9.627752751111984253e-02 9.743593633174896240e-03 -4.924352467060089111e-02 -1.120904460549354553e-01 -7.856840640306472778e-02 -4.480132460594177246e-02 3.258707374334335327e-02 -6.797224283218383789e-02 -4.224420338869094849e-02 7.049033790826797485e-02 -5.218540132045745850e-02 8.354302495718002319e-02 1.977492123842239380e-02 -1.140308380126953125e-01 -1.116278246045112610e-01 1.008258685469627380e-01 -2.971582114696502686e-03 -1.156603544950485229e-01 -2.682945132255554199e-02 4.687456041574478149e-02 -5.755671113729476929e-02 8.633627742528915405e-02 8.103194087743759155e-02 -9.800844639539718628e-02 -1.042131185531616211e-01 9.676758199930191040e-02 5.128682404756546021e-02 7.105494290590286255e-02 -5.443936586380004883e-02 -1.093959212303161621e-01 -8.946109563112258911e-02 -5.488944053649902344e-02 1.395734399557113647e-02 5.538278073072433472e-02 6.111954897642135620e-02 -8.622552454471588135e-02 -2.817498147487640381e-02 1.419321447610855103e-02 5.669563263654708862e-02 1.066252589225769043e-04 -7.200099527835845947e-02 -1.111066490411758423e-01 7.057086378335952759e-02 -3.424657881259918213e-02 6.085792928934097290e-02 1.057622805237770081e-01 7.456042617559432983e-02 1.038380935788154602e-01 -5.841550976037979126e-02 -5.136758834123611450e-02 -9.171791374683380127e-02 1.053201630711555481e-01 -9.989560395479202271e-02 -8.458667248487472534e-02 1.560650020837783813e-02 -9.309820085763931274e-02 2.582768350839614868e-02 2.059139311313629150e-03 3.468800336122512817e-02 -1.441344618797302246e-02 -2.719707041978836060e-02 9.018156677484512329e-02 -4.436191916465759277e-02 -1.440306752920150757e-02 -9.735417366027832031e-02 -1.114457994699478149e-01 -8.770100772380828857e-03 5.097701400518417358e-02 9.853129833936691284e-02 3.178697079420089722e-02 -3.893999010324478149e-02 -4.057198017835617065e-02 -1.101958751678466797e-01 5.837642401456832886e-02 1.039821878075599670e-01 -2.414750307798385620e-02 -8.227580040693283081e-02 6.940715759992599487e-02 -9.008324146270751953e-02 2.345807105302810669e-02 9.325742721557617188e-04 1.045266911387443542e-01 6.987344473600387573e-02 -6.890818476676940918e-03 9.644754230976104736e-03 -4.696377366781234741e-02 -8.752869069576263428e-02 -3.935248404741287231e-02 7.189280539751052856e-02 9.519139677286148071e-02 1.052290722727775574e-01 9.597676247358322144e-02 -4.562995582818984985e-02 -1.126564368605613708e-01 -1.099904105067253113e-01 6.787919253110885620e-02 4.711955040693283081e-02 6.449667364358901978e-02 -1.171796247363090515e-01 2.821470052003860474e-02 6.624855846166610718e-02 -1.198069006204605103e-02 -8.445930480957031250e-02 -1.171450465917587280e-01 8.618734776973724365e-03 -3.503390401601791382e-02 8.675085753202438354e-02 -4.329252243041992188e-02 -2.277854830026626587e-02 7.503994554281234741e-02 2.899803966283798218e-02 7.774166017770767212e-02 2.420111745595932007e-02 -4.941513389348983765e-02 8.284635841846466064e-03 1.247305423021316528e-02 5.400197952985763550e-02 8.645527809858322144e-02 6.164508312940597534e-02 4.326414316892623901e-02 -6.680887192487716675e-02 -6.689940392971038818e-02 -8.715859055519104004e-02 -3.202756494283676147e-02 -3.411961346864700317e-02 4.169035702943801880e-02 1.075641140341758728e-01 -4.646010696887969971e-02 -4.018209129571914673e-02 -6.487499177455902100e-02 3.676078468561172485e-02 -1.421902328729629517e-02 -8.755418658256530762e-02 -5.602642148733139038e-02 1.012074723839759827e-01 -6.763914227485656738e-02 6.174407899379730225e-03 1.014804020524024963e-01 9.478516876697540283e-03 8.548446744680404663e-02 -2.596601843833923340e-04 8.929967135190963745e-02 -2.788624912500381470e-02 9.926509112119674683e-02 -5.971243977546691895e-02 -5.767577141523361206e-02 -1.107172518968582153e-01 -8.414498716592788696e-02 -1.320338994264602661e-02 3.746036440134048462e-02 6.371108442544937134e-02 6.290694326162338257e-02 -1.883611828088760376e-02 8.023289591073989868e-02 5.650355666875839233e-02 -3.934383392333984375e-03 -1.149933561682701111e-01 -7.828018814325332642e-02 9.261579066514968872e-02 4.899968951940536499e-02 -6.611683964729309082e-02 1.015640124678611755e-01
-6.683027744293212891e-02 -3.684788197278976440e-02 -1.351545751094818115e-02 -3.319419175386428833e-02 9.189090877771377563e-02 -4.233872145414352417e-02 9.395468980073928833e-02 -8.451935648918151855e-02 8.719591051340103149e-02 8.294827491044998169e-02 -1.103699654340744019e-01 -1.272016763687133789e-02 -6.819034367799758911e-02 8.653638511896133423e-02 7.199490815401077271e-02 9.316777437925338745e-02 -5.324129760265350342e-02 -4.258508235216140747e-02 -9.998469054698944092e-02 1.396749168634414673e-02 4.394219070672988892e-02 4.225567728281021118e-02 4.949905723333358765e-02 3.737681359052658081e-02 5.281694978475570679e-02 1.186962202191352844e-01 1.234478503465652466e-02 1.065187677741050720e-01 1.192255839705467224e-01 -1.094940155744552612e-01 -1.175082772970199585e-01 -8.648516237735748291e-02 9.258914738893508911e-02 5.818907171487808228e-02 6.716590374708175659e-02 -2.388262003660202026e-02 -3.797421604394912720e-02 4.674171656370162964e-02 3.670600801706314087e-02 7.950835675001144409e-02 8.108898252248764038e-02 -2.764815837144851685e-02 1.823153346776962280e-02 7.322259247303009033e-03 3.861874341964721680e-03 1.097655519843101501e-01 -8.104609698057174683e-02 -5.805654078722000122e-02 -9.769196808338165283e-02 7.524662464857101440e-02 -7.941381633281707764e-02 9.075594693422317505e-02 -1.736674457788467407e-02 9.828455001115798950e-02 5.760363489389419556e-02 9.924631565809249878e-02 7.961536198854446411e-02 1.053188517689704895e-01 2.265248447656631470e-02 2.514364570379257202e-02 5.904769152402877808e-02 7.544679194688796997e-02 1.950750499963760376e-02 -5.597297102212905884e-02 7.943452149629592896e-02 3.819442540407180786e-02 -1.187339425086975098e-01 -3.872483223676681519e-02 -2.463911473751068115e-02 4.222974926233291626e-02 -3.578549623489379883e-02 3.549859672784805298e-02 -2.338817715644836426e-02 -1.305239647626876831e-02 -8.339232951402664185e-02 -1.415231078863143921e-02 2.864652127027511597e-02 -2.292171865701675415e-02 -3.572581708431243896e-02 -4.506358504295349121e-02 4.429111629724502563e-02 8.195046335458755493e-02 9.095539897680282593e-02 -3.198070079088211060e-02 2.980495244264602661e-02 4.033512622117996216e-02 3.730171173810958862e-02 5.913878232240676880e-02 1.048531159758567810e-01 -9.012612700462341309e-02 -1.570158451795578003e-02 -3.035093098878860474e-02 6.659076362848281860e-02 5.954166501760482788e-02 -1.098460704088211060e-02 1.055514141917228699e-01 1.817598193883895874e-02 -3.964814543724060059e-02 9.151131659746170044e-02 9.878835827112197876e-02 -1.049378588795661926e-01 9.805987030267715454e-02 -1.048625558614730835e-01 -5.286283791065216064e-03 -2.729423344135284424e-03 6.921835988759994507e-02 8.436026424169540405e-02 -6.378883868455886841e-02 -6.383420526981353760e-02 6.629578024148941040e-02 3.733069449663162231e-02 9.592548012733459473e-04 1.962126046419143677e-02 -1.081944555044174194e-01 -8.306618034839630127e-02 -9.978972375392913818e-02 8.293538540601730347e-02 1.179721429944038391e-01 -9.052570909261703491e-02 -7.661759853363037109e-02 -3.215311467647552490e-02 -8.271855115890502930e-02 -8.434998989105224609e-02 -5.322195589542388916e-03 9.680590778589248657e-02 -4.955282807350158691e-02 7.959189265966415405e-02 -1.123485788702964783e-01 8.558829873800277710e-02 -5.217968672513961792e-02 8.820401877164840698e-02 1.091315224766731262e-01 -5.620077252388000488e-03 9.229667484760284424e-03 -5.588918924331665039e-02 6.131515651941299438e-02 9.727712720632553101e-02 4.699180275201797485e-02 -5.041883140802383423e-02 1.011728718876838684e-01 1.630891114473342896e-02 1.096077635884284973e-01 3.315112739801406860e-02 1.511201262474060059e-03 -1.960481703281402588e-02 7.088562101125717163e-02 -6.886290758848190308e-02 -1.574329286813735962e-02 9.372568875551223755e-02 -8.330767601728439331e-02 9.953651577234268188e-02 -5.685612559318542480e-04 -7.717989385128021240e-02 1.429773122072219849e-02 -9.904597699642181396e-02 -9.286305308341979980e-02 -7.903786003589630127e-02 -2.255830913782119751e-02 4.873948544263839722e-02 -6.693015247583389282e-02 7.722843438386917114e-02 -1.145348250865936279e-01 -1.170654147863388062e-01 1.413664966821670532e-02 7.512324303388595581e-02 7.848729938268661499e-02 9.882660955190658569e-02 -4.531548917293548584e-02 -2.164592593908309937e-02 1.038568094372749329e-01 1.982112973928451538e-02 8.632182329893112183e-02 8.881763368844985962e-02 5.461864918470382690e-02 8.225945383310317993e-02 -6.544929742813110352e-02 -4.673185944557189941e-02 5.101776868104934692e-02 9.589216858148574829e-02 -1.722732186317443848e-02 9.191341698169708252e-03 1.044929698109626770e-01 1.061516627669334412e-01 6.442800909280776978e-02 -7.517983019351959229e-02 5.410087853670120239e-02 -8.377341926097869873e-02 9.170008450746536255e-02 6.419423967599868774e-02 9.424669295549392700e-02 -1.280583441257476807e-03 -5.654863268136978149e-02 4.438459873199462891e-04 4.018798470497131348e-03 -3.586247563362121582e-02 9.332969039678573608e-02 -1.198070347309112549e-01 9.725186973810195923e-02 7.788643985986709595e-02 -2.444489300251007080e-02 3.477173298597335815e-02 1.170584931969642639e-01 1.050030663609504700e-01 7.521899789571762085e-02 -1.037851050496101379e-01 -2.801312506198883057e-02 -6.259094923734664917e-02 7.572583109140396118e-02 -4.554977267980575562e-02 -2.624899148941040039e-03 2.512447535991668701e-03 3.840347379446029663e-02 2.428556233644485474e-02 8.745332807302474976e-02 -4.389972984790802002e-02 9.658045321702957153e-02 9.280381351709365845e-02 1.932916790246963501e-02 -7.462540268898010254e-02 9.691152721643447876e-02 -7.757668197154998779e-02 -3.822614997625350952e-02 -6.350725889205932617e-03 7.947430759668350220e-02 1.480396836996078491e-02 -1.530567556619644165e-02 -2.719133347272872925e-02 -5.747295171022415161e-02 -6.530946493148803711e-02 -2.816843241453170776e-02 -4.160904884338378906e-02 -9.505116939544677734e-02 -7.457628846168518066e-02 -1.892270892858505249e-02 3.322897106409072876e-02 1.012656837701797485e-02 -1.096747666597366333e-01 8.184752613306045532e-02 1.061321720480918884e-01 6.035869568586349487e-02 -1.051525250077247620e-01 4.654452949762344360e-02 -3.737062215805053711e-04 -8.235742151737213135e-02 -1.128029003739356995e-01 3.141891211271286011e-02 -1.181971430778503418e-01 4.781911522150039673e-02 1.138604655861854553e-01 1.155649349093437195e-01 9.656389802694320679e-02 1.015148311853408813e-02 -3.052158653736114502e-02 8.112636953592300415e-02 2.235330641269683838e-03 -7.610184699296951294e-02 -5.643879622220993042e-02 9.611088782548904419e-02 -5.440130829811096191e-03 -2.796925604343414307e-02 -7.121695578098297119e-02 -4.580606520175933838e-02 -5.069661140441894531e-02 8.295052498579025269e-02 6.098710745573043823e-02 7.973231375217437744e-03 -9.365975856781005859e-02 -3.135070949792861938e-02 6.374634802341461182e-03 -1.115596666932106018e-01 9.372720867395401001e-02 9.384922683238983154e-03 1.907337456941604614e-02 5.239335447549819946e-02 -3.410588949918746948e-02 -4.384979605674743652e-03 -7.417786121368408203e-02 -4.027067124843597412e-02 -7.739630341529846191e-02 9.929505735635757446e-02 -4.187499731779098511e-02 -1.175432354211807251e-01 -5.785351991653442383e-02 9.621436148881912231e-02 4.108139127492904663e-02 2.780757099390029907e-02 1.864827424287796021e-02 -4.400266706943511963e-02 1.597694307565689087e-02 -7.710663974285125732e-02 -3.222528100013732910e-02 2.825089544057846069e-02 6.920482963323593140e-02 4.388969391584396362e-02 -1.123456358909606934e-01 -5.878321826457977295e-03 -6.921847164630889893e-02 1.184917911887168884e-01 -1.019558385014533997e-01 3.800265491008758545e-03 -6.319192796945571899e-02 -6.929986178874969482e-03 3.527254611253738403e-02 3.939918428659439087e-02 -7.728375494480133057e-02 -2.211726456880569458e-02 -2.259366959333419800e-02 1.715862005949020386e-02 -4.192817956209182739e-02 -6.592333316802978516e-03 -9.164082258939743042e-02 6.792969256639480591e-02 1.107871308922767639e-01 -1.638398319482803345e-02 3.859979659318923950e-02 3.238403052091598511e-02 3.599139302968978882e-02 -5.540587007999420166e-03 9.161988645792007446e-02 3.079913556575775146e-03 -2.781471610069274902e-02 -3.804303705692291260e-02 3.988198935985565186e-03 -7.032513618469238281e-02 5.457056313753128052e-02 -7.170195877552032471e-02 -1.029253900051116943e-01 2.990397065877914429e-02 7.589920610189437866e-02 1.019783690571784973e-01 3.389231115579605103e-02 9.543704241514205933e-02 -1.480662077665328979e-02 9.460868686437606812e-02 -1.388119906187057495e-02 4.735030978918075562e-02 -1.055272445082664490e-01 -1.109299361705780029e-01 1.157454401254653931e-02 -8.682131767272949219e-03 2.018950134515762329e-02 -1.113242357969284058e-01 8.595033735036849976e-02 1.418585330247879028e-02 5.274825543165206909e-02 1.005299165844917297e-01 9.136419743299484253e-02 3.098144382238388062e-02 -1.053571626543998718e-01 -2.040968090295791626e-02 2.181502431631088257e-02 3.351560980081558228e-02 3.580916672945022583e-02 9.268931299448013306e-02 1.093076094985008240e-01 -1.125336289405822754e-01 1.001477614045143127e-01 4.159959405660629272e-02 -5.850292742252349854e-02 7.843884080648422241e-02 -7.811841368675231934e-02 -7.315700501203536987e-02 -6.669633090496063232e-02 -9.651605784893035889e-02 2.949900180101394653e-02 2.159040421247482300e-02 4.575068503618240356e-02 -5.879665166139602661e-02 -8.102025091648101807e-02 6.668346375226974487e-02 1.338774710893630981e-02 8.787951618432998657e-02 1.000714525580406189e-01 -3.264443576335906982e-02 -2.818432450294494629e-02 -7.910607755184173584e-02 -5.076132714748382568e-02 2.981036901473999023e-03 7.154055684804916382e-02 3.248520195484161377e-03 -2.569585293531417847e-02 1.078934893012046814e-01 -1.245427876710891724e-02 8.071693032979965210e-02 5.921941250562667847e-02 1.029558405280113220e-01 1.034565940499305725e-01 8.928068727254867554e-02 -1.151279583573341370e-01 -2.114644646644592285e-02 1.111730709671974182e-01 9.174523502588272095e-02 -4.448039829730987549e-02 5.172529071569442749e-02 1.070063635706901550e-01 -9.159478545188903809e-02 -1.165335997939109802e-01 9.359032660722732544e-02 4.536668211221694946e-02 1.145131364464759827e-01
3.948516398668289185e-02 -3.880722820758819580e-02 -1.059296131134033203e-01 -9.074285626411437988e-02 3.829807788133621216e-02 5.237828940153121948e-02 6.525795906782150269e-02 -9.147656708955764771e-02 4.702662676572799683e-02 -1.621770858764648438e-02 2.073100954294204712e-02 -7.411737740039825439e-02 8.494219928979873657e-02 9.825723618268966675e-02 2.389020472764968872e-02 2.789198607206344604e-02 6.916286796331405640e-02 1.018467023968696594e-01 7.173135131597518921e-02 -7.526713609695434570e-02 -6.928786635398864746e-02 1.071311458945274353e-01 9.992929548025131226e-02 6.026069074869155884e-02 5.721285194158554077e-02 1.149447783827781677e-01 1.012675538659095764e-01 -7.026067376136779785e-02 6.373605877161026001e-02 -4.422488808631896973e-02 -8.188486099243164062e-04 3.841079771518707275e-03 4.485566169023513794e-02 -3.394603729248046875e-03 -1.117402166128158569e-01 1.120186522603034973e-01 8.512984961271286011e-02 -7.150626182556152344e-02 -2.649569511413574219e-02 5.072388797998428345e-02 1.383969932794570923e-02 4.514514654874801636e-02 8.262092620134353638e-02 2.504765242338180542e-02 -4.010820388793945312e-02 -1.059711724519729614e-02 5.298804491758346558e-02 2.093731611967086792e-02 -6.580916047096252441e-02 -1.076354384422302246e-01 -7.079721987247467041e-02 -9.164586663246154785e-02 2.980784326791763306e-02 9.631981700658798218e-02 6.988609582185745239e-02 3.196965903043746948e-02 5.100627988576889038e-02 -1.175124645233154297e-01 8.597327023744583130e-02 7.556662708520889282e-02 8.639737218618392944e-02 1.105728968977928162e-01 1.192725077271461487e-01 -2.878758311271667480e-02 6.079020351171493530e-02 -6.485390663146972656e-02 7.903901487588882446e-02 -1.072496250271797180e-01 1.028046235442161560e-01 -9.204149246215820312e-02 8.991338312625885010e-03 -2.893909066915512085e-02 -2.309785783290863037e-02 7.765325158834457397e-02 -6.520460546016693115e-02 7.567112892866134644e-02 -1.077612489461898804e-01 7.706932723522186279e-03 7.652826607227325439e-03 1.008190959692001343e-02 -3.748930245637893677e-02 1.197246387600898743e-01 1.008085384964942932e-01 -5.978367850184440613e-02 -6.852649152278900146e-02 -1.150707900524139404e-01 1.037896648049354553e-01 6.534116715192794800e-02 -1.108001172542572021e-01 -1.754129678010940552e-02 -1.012776792049407959e-01 1.192369535565376282e-01 -2.029442787170410156e-02 5.629278719425201416e-03 7.130292803049087524e-02 -2.869156748056411743e-02 -1.886542886495590210e-02 -2.594097703695297241e-02 -1.521969586610794067e-02 4.044703394174575806e-02 -8.237875998020172119e-03 -9.617681801319122314e-02 -4.414612799882888794e-02 -1.177375987172126770e-01 -1.508583873510360718e-02 -8.651809394359588623e-02 -6.117374449968338013e-02 8.263079077005386353e-02 6.933977454900741577e-02 -5.687148869037628174e-02 -6.974431872367858887e-02 -3.225700557231903076e-02 -9.590004384517669678e-02 3.509873896837234497e-02 -1.561843603849411011e-02 -4.344817996025085449e-02 -5.412403494119644165e-02 -5.564648658037185669e-02 9.807106107473373413e-02 -5.217706412076950073e-02 -7.269813120365142822e-02 6.879123300313949585e-02 9.257876127958297729e-02 -7.824404537677764893e-02 -9.409448504447937012e-02 -9.842045605182647705e-02 1.065026149153709412e-01 -9.741785377264022827e-02 -3.782805055379867554e-02 -4.533839225769042969e-02 -2.964660525321960449e-03 -1.158870756626129150e-03 6.962425261735916138e-02 9.871905297040939331e-02 -9.185618162155151367e-02 -6.249473243951797485e-02 6.564677506685256958e-02 7.119245827198028564e-03 -1.249110698699951172e-02 7.921662181615829468e-02 6.124375015497207642e-02 -1.745537668466567993e-02 -5.356254428625106812e-02 -5.200505256652832031e-05 1.002785339951515198e-01 -7.479989528656005859e-02 4.155764728784561157e-02 2.317100763320922852e-03 1.176282688975334167e-01 -4.338544607162475586e-02 -7.775191962718963623e-02 7.761148363351821899e-02 6.989484280347824097e-02 1.125226989388465881e-01 -9.755078703165054321e-02 -4.420623183250427246e-03 -2.769358456134796143e-02 -6.373496353626251221e-02 2.870414406061172485e-02 -1.153436377644538879e-01 8.779160678386688232e-03 -4.234249889850616455e-02 -6.544453650712966919e-02 7.644703239202499390e-02 -8.907839655876159668e-02 -6.668190658092498779e-02 -6.534680724143981934e-03 1.022869125008583069e-01 4.894178360700607300e-02 6.450042873620986938e-02 -1.765135675668716431e-02 -9.469462931156158447e-02 3.129786998033523560e-02 -2.967303246259689331e-02 1.048985794186592102e-01 6.109260767698287964e-02 -6.768532097339630127e-02 -3.230608999729156494e-03 2.344868332147598267e-02 1.054988279938697815e-01 4.225225001573562622e-02 5.955735594034194946e-02 -2.851142734289169312e-02 5.006165057420730591e-02 2.332464605569839478e-02 -2.462466061115264893e-02 9.670311957597732544e-02 -6.980820000171661377e-02 -4.910234361886978149e-02 8.580311387777328491e-02 -1.071222573518753052e-01 2.216563373804092407e-02 -1.523406058549880981e-02 4.995707422494888306e-02 -3.472039103507995605e-02 -8.413951098918914795e-02 4.503353685140609741e-02 -1.209642291069030762e-01 3.236433118581771851e-02 1.145247593522071838e-01 1.097646877169609070e-01 -3.605398535728454590e-02 8.218959718942642212e-02 7.760770618915557861e-03 1.086524054408073425e-01 8.316216617822647095e-02 -8.343420922756195068e-02 -4.910156130790710449e-03 -1.165660470724105835e-01 9.369482845067977905e-02 8.515379577875137329e-02 5.310714989900588989e-02 -6.376385688781738281e-02 1.206437423825263977e-01 -4.356585443019866943e-02 -1.050019711256027222e-01 2.750221639871597290e-02 3.961863368749618530e-02 -7.705731689929962158e-02 1.051747575402259827e-01 1.017486378550529480e-01 -8.261927962303161621e-02 1.187945678830146790e-01 -6.931222975254058838e-02 3.043358772993087769e-02 -9.895820915699005127e-02 -7.004328817129135132e-02 -7.928074151277542114e-02 6.685259193181991577e-02 -2.893964201211929321e-02 -8.372931182384490967e-02 2.051687985658645630e-02 -2.092900872230529785e-02 1.148050501942634583e-01 2.528753131628036499e-02 -6.833627820014953613e-03 -3.913778811693191528e-02 2.622229605913162231e-02 5.783808976411819458e-02 6.271617859601974487e-02 -8.302981406450271606e-02 1.022174879908561707e-01 1.197045966982841492e-01 -8.142248541116714478e-02 -1.059695333242416382e-01 -1.068618148565292358e-01 -6.564570963382720947e-02 1.330159604549407959e-03 4.297608882188796997e-02 -2.718885242938995361e-02 6.378326565027236938e-02 -6.626877933740615845e-02 -1.093975603580474854e-01 -1.074696853756904602e-01 -1.554312556982040405e-02 -7.999126613140106201e-02 4.221565276384353638e-02 -3.503598272800445557e-03 1.977068930864334106e-02 1.206238642334938049e-01 1.159402653574943542e-01 3.061994165182113647e-02 2.758447080850601196e-02 -4.837042093276977539e-02 1.064630523324012756e-01 1.007018759846687317e-01 -2.931100875139236450e-02 -2.554117143154144287e-02 -4.959958046674728394e-02 -6.287388503551483154e-03 7.201371341943740845e-02 -1.155150756239891052e-01 -1.988951116800308228e-02 5.685562640428543091e-02 -8.900259435176849365e-02 8.728341013193130493e-02 -6.569485366344451904e-02 -3.376872092485427856e-02 -7.057072222232818604e-02 8.186408132314682007e-02 -6.890175491571426392e-02 9.588063508272171021e-02 9.063198417425155640e-02 -1.165845617651939392e-01 1.168134734034538269e-01 -9.378449618816375732e-02 1.198406890034675598e-01 -1.899316906929016113e-02 -8.421605080366134644e-02 -7.062592357397079468e-02 -2.325864881277084351e-02 6.340970844030380249e-02 4.679995030164718628e-02 -4.261729866266250610e-02 -7.080549001693725586e-02 -1.434292644262313843e-02 -4.611354321241378784e-02 8.515404909849166870e-02 -7.206533849239349365e-02 9.981473535299301147e-02 9.210480004549026489e-02 -3.700020164251327515e-02 -5.062814056873321533e-02 1.182019039988517761e-01 2.565111964941024780e-02 -1.186288744211196899e-01 6.398750096559524536e-02 9.263666719198226929e-02 -4.477354884147644043e-02 -3.751304000616073608e-02 3.898391872644424438e-02 5.698858946561813354e-02 -1.183132603764533997e-01 5.661415308713912964e-02 -9.648164361715316772e-02 3.895417600870132446e-02 -4.775424301624298096e-02 -1.226588338613510132e-02 -4.380425810813903809e-02 -9.658899903297424316e-02 1.124390885233879089e-01 2.551371604204177856e-02 -1.052374690771102905e-01 -1.001199036836624146e-01 9.906076639890670776e-02 4.319564253091812134e-02 3.525458276271820068e-03 6.718375533819198608e-02 1.093232408165931702e-01 6.384871155023574829e-02 5.121853202581405640e-02 9.731572121381759644e-02 2.776647359132766724e-02 1.773000508546829224e-02 8.745638281106948853e-02 -7.557879388332366943e-02 3.153599798679351807e-03 -5.250286310911178589e-02 -9.736149758100509644e-02 5.067057907581329346e-03 -4.713743180036544800e-02 -5.717262625694274902e-02 2.661865204572677612e-02 -1.471960544586181641e-02 -8.585026860237121582e-02 -4.516796022653579712e-02 -9.244522452354431152e-02 1.181464120745658875e-01 6.031177192926406860e-02 -5.155780166387557983e-02 4.632823169231414795e-03 -1.522540301084518433e-02 1.082108393311500549e-01 3.426564484834671021e-02 5.250052362680435181e-02 4.403557628393173218e-02 4.860020428895950317e-02 -3.696262836456298828e-03 -1.055667251348495483e-01 -6.497392058372497559e-02 -6.060458719730377197e-03 3.208150714635848999e-02 3.168100863695144653e-02 9.640804678201675415e-02 -1.955249905586242676e-02 -8.325728774070739746e-02 1.043566688895225525e-01 6.511000543832778931e-02 7.511288672685623169e-02 1.113773658871650696e-01 -1.175624728202819824e-01 -3.594755381345748901e-02 -8.920322358608245850e-02 7.329099625349044800e-02 -1.104807481169700623e-01 1.892291009426116943e-03 -8.436931669712066650e-02 -5.948036909103393555e-03 -2.255404740571975708e-02 -7.029150426387786865e-02 5.677463859319686890e-02 -6.667681038379669189e-02 -6.414203345775604248e-02 -6.428414583206176758e-02 2.259559929370880127e-03 4.692292958498001099e-02 6.572946161031723022e-02 8.124361187219619751e-02 1.132695004343986511e-01 -9.860602021217346191e-02 5.660323053598403931e-02 -8.784502744674682617e-02 -1.086980029940605164e-01 6.793995946645736694e-02 5.714409798383712769e-02 4.837857931852340698e-02 7.006230205297470093e-02 -1.023492217063903809e-02 -1.009125411510467529e-01 6.230198591947555542e-02
7.767229527235031128e-02 1.350899785757064819e-02 8.970483392477035522e-02 9.353923052549362183e-02 -9.480933845043182373e-02 9.288705140352249146e-02 1.067589893937110901e-01 -6.445367634296417236e-02 1.016991585493087769e-02 6.212670356035232544e-02 -3.590925782918930054e-02 -4.316224157810211182e-02 5.784868448972702026e-02 2.104759961366653442e-02 -4.912290722131729126e-02 -2.930806577205657959e-02 2.974257618188858032e-02 7.484064251184463501e-02 -9.594870358705520630e-02 -1.630556583404541016e-02 -4.707974940538406372e-02 -6.946881860494613647e-02 1.902855187654495239e-02 1.124687120318412781e-01 -3.806258738040924072e-02 -6.456151604652404785e-02 -1.185730397701263428e-01 7.768636196851730347e-02 1.147295013070106506e-01 -1.756024360656738281e-02 -2.029863744974136353e-02 -3.535710275173187256e-02 3.218273073434829712e-02 7.968807965517044067e-02 1.208810731768608093e-01 1.045110598206520081e-01 7.343927770853042603e-02 -7.919675111770629883e-02 -6.767287850379943848e-03 9.541215747594833374e-02 -1.839379966259002686e-02 6.949283927679061890e-02 -1.817446202039718628e-02 5.764732509851455688e-02 3.196529299020767212e-02 -4.248912632465362549e-02 1.165880784392356873e-01 -1.202504485845565796e-01 6.669085472822189331e-02 -1.019292175769805908e-01 -4.252587258815765381e-02 -1.082026734948158264e-01 7.886026054620742798e-02 -1.428504288196563721e-02 -5.616555362939834595e-02 8.626751601696014404e-03 -5.521576106548309326e-02 8.484754711389541626e-02 9.895893186330795288e-02 -4.946803301572799683e-02 5.379904061555862427e-02 -3.422676026821136475e-02 3.718564659357070923e-02 -9.181263297796249390e-02 8.643936365842819214e-02 -4.688593000173568726e-02 1.096249595284461975e-01 -2.482254803180694580e-02 1.108651533722877502e-01 2.512758225202560425e-02 7.698827236890792847e-02 -8.515866100788116455e-02 5.141953378915786743e-02 1.077397838234901428e-01 3.265487402677536011e-02 -7.661430537700653076e-02 3.923694044351577759e-02 -1.135605424642562866e-01 5.873732268810272217e-03 1.000513881444931030e-02 -3.219340741634368896e-02 -4.745128750801086426e-02 7.815336436033248901e-02 1.069597378373146057e-01 -9.445431828498840332e-02 -1.136744171380996704e-01 -2.981963753700256348e-02 -3.015904873609542847e-02 -3.541977703571319580e-02 4.025918990373611450e-02 4.223578423261642456e-02 6.934352964162826538e-02 3.832042962312698364e-02 -8.145798742771148682e-02 7.576266676187515259e-02 -9.396475553512573242e-02 8.999415487051010132e-02 -8.003008365631103516e-02 -2.797730267047882080e-02 7.640505582094192505e-02 -7.283377647399902344e-02 1.204683557152748108e-01 9.433995932340621948e-02 7.078051567077636719e-05 -8.869957923889160156e-02 4.058782011270523071e-02 -4.222075641155242920e-02 -2.466276288032531738e-02 8.570203930139541626e-02 -5.546362698078155518e-02 6.981182843446731567e-02 1.583103090524673462e-02 -1.438754796981811523e-02 6.778912991285324097e-02 -5.425183475017547607e-02 -5.452331900596618652e-02 -4.579821974039077759e-02 3.977810591459274292e-02 8.808895945549011230e-04 1.514536887407302856e-02 -7.147797197103500366e-02 1.142332479357719421e-01 7.826253026723861694e-02 -1.663372665643692017e-02 -7.658566534519195557e-02 -2.667053043842315674e-02 2.331849187612533569e-02 -7.771024107933044434e-02 1.649912446737289429e-02 -1.069009527564048767e-01 -1.017501950263977051e-02 1.114992126822471619e-01 -4.425745457410812378e-02 5.361578613519668579e-02 4.728671163320541382e-02 -7.650416344404220581e-02 3.779626637697219849e-02 -9.589609503746032715e-02 -3.419414162635803223e-02 -2.983716875314712524e-02 -1.523028314113616943e-02 9.054676443338394165e-02 -3.504589945077896118e-02 7.301244884729385376e-02 5.637099593877792358e-02 9.374807029962539673e-02 -4.303470253944396973e-03 3.330116719007492065e-02 7.009495049715042114e-02 1.073216423392295837e-01 9.251753240823745728e-02 -1.295503228902816772e-02 2.635537832975387573e-02 1.783198863267898560e-02 5.405612289905548096e-03 -7.769584655761718750e-02 -3.233693540096282959e-03 -2.678915858268737793e-02 4.567015916109085083e-02 1.163345053791999817e-01 -5.876031145453453064e-02 -9.554541110992431641e-02 -6.803049892187118530e-02 -7.832509279251098633e-02 2.322109788656234741e-02 1.096177473664283752e-01 1.464187353849411011e-02 3.598768264055252075e-02 8.570628613233566284e-02 -9.300334006547927856e-02 -4.676458984613418579e-02 -8.833259344100952148e-02 -6.240563839673995972e-02 1.215460151433944702e-02 1.171777173876762390e-01 3.205376118421554565e-02 -1.055876389145851135e-01 -6.536482274532318115e-02 1.094314530491828918e-01 -1.688055694103240967e-02 -4.151874035596847534e-02 9.375959634780883789e-04 9.246074408292770386e-02 -4.536812752485275269e-02 -1.202547773718833923e-01 -4.510252177715301514e-02 -2.707304805517196655e-02 1.223380118608474731e-02 4.567968100309371948e-02 -4.980135709047317505e-02 -1.146487221121788025e-01 -2.906925231218338013e-02 -2.518347650766372681e-02 -1.130744442343711853e-01 8.987704664468765259e-02 1.070461198687553406e-01 1.085289344191551208e-01 -1.917276531457901001e-02 -1.202729791402816772e-01 -9.722472727298736572e-02 1.168279275298118591e-01 8.843559771776199341e-02 6.303102523088455200e-02 9.428963810205459595e-02 5.954097956418991089e-02 3.093826025724411011e-02 -3.738901764154434204e-02 -9.818435460329055786e-02 7.022596895694732666e-03 2.499776333570480347e-02 -3.508899360895156860e-02 1.026596650481224060e-01 6.294054538011550903e-02 -1.105545014142990112e-01 5.266746133565902710e-02 1.479925960302352905e-02 -1.169990152120590210e-01 9.242122620344161987e-02 -2.895065397024154663e-02 6.274349242448806763e-02 -7.774014770984649658e-02 5.187252908945083618e-02 6.068464368581771851e-02 9.815767407417297363e-04 2.300994843244552612e-02 -1.153816506266593933e-01 -1.049210131168365479e-02 -3.361266106367111206e-02 1.187513992190361023e-01 9.391240775585174561e-03 3.565870225429534912e-03 -3.261052072048187256e-02 -3.197787702083587646e-02 3.741540014743804932e-03 -1.304414868354797363e-02 -4.233147948980331421e-02 -1.211189478635787964e-02 4.100275784730911255e-02 -7.836259156465530396e-02 7.896696776151657104e-02 2.686125785112380981e-02 8.535813540220260620e-02 7.171276956796646118e-02 7.633198052644729614e-02 1.163271814584732056e-02 1.172331348061561584e-01 7.926776260137557983e-02 2.632486075162887573e-02 1.118249446153640747e-02 -5.915042757987976074e-02 9.350877255201339722e-02 -1.639390736818313599e-02 -5.249262601137161255e-02 8.256413787603378296e-02 3.943984955549240112e-02 3.044686466455459595e-02 -8.337162435054779053e-02 -4.678801447153091431e-02 8.857809007167816162e-03 8.043689280748367310e-02 -3.014396131038665771e-02 -4.370201379060745239e-02 -1.619131863117218018e-02 7.054897397756576538e-02 -9.591995179653167725e-02 -4.207804799079895020e-02 -9.263785928487777710e-02 -1.027327775955200195e-02 4.129137843847274780e-02 9.270381182432174683e-02 -6.893672049045562744e-03 5.821774154901504517e-02 -8.442252874374389648e-02 -6.039988622069358826e-02 -3.914278000593185425e-02 -5.199129134416580200e-02 -1.102469861507415771e-02 -4.750014841556549072e-02 -9.265936911106109619e-02 -1.111718863248825073e-01 1.184113249182701111e-01 -1.324572414159774780e-02 -9.506201744079589844e-02 -6.765982508659362793e-02 3.872535377740859985e-02 -7.758434861898422241e-02 -1.061775982379913330e-01 3.242408484220504761e-02 -1.053731366991996765e-01 9.865274280309677124e-02 5.440395325422286987e-02 8.496759086847305298e-02 -6.500273942947387695e-02 5.876467376947402954e-02 1.084265485405921936e-01 6.514633446931838989e-02 6.416470557451248169e-02 -5.546042323112487793e-02 1.931747049093246460e-02 -6.188556179404258728e-02 6.867105513811111450e-02 -8.411705493927001953e-04 1.448033004999160767e-02 -3.378859907388687134e-02 1.565697044134140015e-02 9.649575501680374146e-02 8.852436393499374390e-02 9.937269240617752075e-02 -8.977697044610977173e-02 2.028081566095352173e-02 -4.302027821540832520e-02 2.752044051885604858e-02 4.373677819967269897e-02 -5.925573036074638367e-02 2.336857467889785767e-02 1.029473915696144104e-01 4.036080092191696167e-02 -3.662210702896118164e-02 -9.162995219230651855e-02 -6.318858265876770020e-02 -5.480080842971801758e-02 -1.137877330183982849e-01 9.469705075025558472e-02 -2.021438628435134888e-02 1.257339864969253540e-02 9.720047563314437866e-02 2.522581070661544800e-02 -6.941422075033187866e-02 -3.096707910299301147e-02 -5.145370960235595703e-05 -1.178918778896331787e-01 -7.449388504028320312e-02 9.475978463888168335e-02 4.925675690174102783e-03 7.052130997180938721e-03 -2.034746855497360229e-02 -1.030310317873954773e-01 1.056082025170326233e-01 1.994737237691879272e-02 6.629001349210739136e-02 7.977353781461715698e-02 2.434844523668289185e-02 -2.321858704090118408e-02 -6.904377043247222900e-02 3.762335330247879028e-02 -2.344632893800735474e-02 1.175823062658309937e-02 -9.686157852411270142e-02 -7.896033674478530884e-02 7.763571292161941528e-02 -7.304097712039947510e-02 -5.907503515481948853e-02 3.501299768686294556e-02 -6.845133006572723389e-02 -5.009006708860397339e-02 4.072211682796478271e-03 -1.306762546300888062e-02 4.542904347181320190e-02 6.823674589395523071e-02 1.092431470751762390e-01 -1.076035946607589722e-01 -1.122024655342102051e-02 -9.500332176685333252e-02 -3.211914002895355225e-02 1.047758236527442932e-01 -6.009753793478012085e-02 -4.797292500734329224e-02 3.228152543306350708e-02 5.073349922895431519e-02 4.154095798730850220e-02 -1.202583834528923035e-01 -7.092063128948211670e-02 -8.372974395751953125e-02 -5.285911262035369873e-03 -4.871231317520141602e-02 1.069645509123802185e-01 1.106077954173088074e-01 -8.868738263845443726e-02 -6.784729659557342529e-02 -1.025540456175804138e-01 9.847008436918258667e-02 -4.901073873043060303e-02 -6.498461961746215820e-02 -7.139465212821960449e-02 -4.195742309093475342e-03 -9.766453504562377930e-02 1.101961359381675720e-01 -9.877460449934005737e-02 -5.080096423625946045e-03 1.178730279207229614e-02 9.960951656103134155e-02 -9.792599081993103027e-02 -4.212188720703125000e-02 6.512027233839035034e-02 -6.413799524307250977e-02 1.763220876455307007e-02 -1.159619241952896118e-01 -8.592781424522399902e-02 1.078809425234794617e-01 -5.237448960542678833e-02
